tree
version=v4
num_class=1
num_tree_per_iteration=1
label_index=0
max_feature_idx=189
objective=regression
feature_names=CNTD10 CNTD20 CNTD30 CNTD5 CNTD60 CNTN10 CNTN20 CNTN30 CNTN5 CNTN60 CNTP10 CNTP20 CNTP30 CNTP5 CNTP60 CORD10 CORD20 CORD30 CORD5 CORD60 CORR10 CORR20 CORR30 CORR5 CORR60 HIGH0 HIGH1 HIGH2 HIGH3 HIGH4 IMAX10 IMAX20 IMAX30 IMAX5 IMAX60 IMIN10 IMIN20 IMIN30 IMIN5 IMIN60 IMXD10 IMXD20 IMXD30 IMXD5 IMXD60 KLEN KLOW KLOW2 KMID KMID2 KSFT KSFT2 KUP KUP2 LOW0 LOW1 LOW2 LOW3 LOW4 MA10 MA20 MA30 MA5 MA60 MAX10 MAX20 MAX30 MAX5 MAX60 MIN10 MIN20 MIN30 MIN5 MIN60 OPEN0 OPEN1 OPEN2 OPEN3 OPEN4 QTLD10 QTLD20 QTLD30 QTLD5 QTLD60 QTLU10 QTLU20 QTLU30 QTLU5 QTLU60 ROC10 ROC20 ROC30 ROC5 ROC60 RSV10 RSV20 RSV30 RSV5 RSV60 STD10 STD20 STD30 STD5 STD60 SUMD10 SUMD20 SUMD30 SUMD5 SUMD60 SUMN10 SUMN20 SUMN30 SUMN5 SUMN60 SUMP10 SUMP20 SUMP30 SUMP5 SUMP60 VMA10 VMA20 VMA30 VMA5 VMA60 VOLUME1 VOLUME2 VOLUME3 VOLUME4 VSTD10 VSTD20 VSTD30 VSTD5 VSTD60 VSUMD10 VSUMD20 VSUMD30 VSUMD5 VSUMD60 VSUMN10 VSUMN20 VSUMN30 VSUMN5 VSUMN60 VSUMP10 VSUMP20 VSUMP30 VSUMP5 VSUMP60 WVMA10 WVMA20 WVMA30 WVMA5 WVMA60 ENG_RET_1 ENG_LOG_RET_1 ENG_RANGE_1 ENG_BODY_1 ENG_BODY_ABS ENG_CLOSE_TO_RANGE ENG_INTRABAR_VOL ENG_RET_5 ENG_RV_5 ENG_PRICE_TO_MA_5 ENG_VOLUME_RATIO_5 ENG_POSITION_RATIO_5 ENG_AMOUNT_RATIO_5 ENG_RET_20 ENG_RV_20 ENG_PRICE_TO_MA_20 ENG_VOLUME_RATIO_20 ENG_POSITION_RATIO_20 ENG_AMOUNT_RATIO_20 ENG_RET_60 ENG_RV_60 ENG_PRICE_TO_MA_60 ENG_VOLUME_RATIO_60 ENG_POSITION_RATIO_60 ENG_AMOUNT_RATIO_60 ENG_ATR_20 ENG_ATR_60 ENG_VOL_RATIO_5_20 ENG_RET_DIFF_5_20 ENG_PRICE_BREAKOUT_20 ENG_PRICE_BREAKDOWN_20 ENG_TOD_SIN ENG_TOD_COS ENG_WEEKDAY ENG_IS_DAY_SESSION daily_vol_20 daily_ret
feature_infos=[-2.5:2.5] [-3.5:3.75] [-2.8333332538604736:2.8333332538604736] [-2.5:2.5] [-3.2499997615814209:3.3749997615814209] [-2.0000002384185791:3.0000002384185791] [-4.0000004768371582:4.5000004768371582] [-3.0000002384185791:2.5000002384185791] [-0.99999994039535522:1.5] [-4.8000011444091797:3.2000010013580322] [-2.0000002384185791:3.0000002384185791] [-4.0000004768371582:4.5000004768371582] [-3.0000002384185791:2.75] [-0.99999994039535522:1.5] [-4.8000011444091797:3.4000008106231689] [-1.2433294057846069:1.2513343095779419] [-1.5923254489898682:1.6432280540466309] [-1.8135640621185303:1.8922189474105835] [-0.93153786659240723:0.92052561044692993] [-2.257286548614502:2.3822216987609863] [-1.2212018966674805:1.2338486909866333] [-1.4470158815383911:1.471992015838623] [-1.5925111770629883:1.6142456531524658] [-0.94724595546722412:0.95268553495407104] [-1.8310147523880005:1.8501995801925659] [-0.81021392345428467:42.580055236816406] [-20.764232635498047:21.025318145751953] [-31.764795303344727:30.472196578979492] [-22.815004348754883:22.571651458740234] [-21.809444427490234:20.696918487548828] [-0.4285714328289032:0.8571428656578064] [-0.49999997019767761:0.8571428656578064] [-0.57142859697341919:0.8095238208770752] [-0.3333333432674408:1] [-0.60975605249404907:0.82926827669143677] [-0.4285714328289032:0.8571428656578064] [-0.49999997019767761:0.8571428656578064] [-0.55000001192092896:0.90000003576278687] [-0.3333333432674408:1] [-0.58536577224731445:0.85365855693817139] [-0.89999997615814209:0.89999997615814209] [-0.90909087657928467:0.81818175315856934] [-0.96874994039535522:0.84374994039535522] [-1:1] [-1:0.81538456678390503] [-1.4778265953063965:30.801267623901367] [-0.87138032913208008:36.687309265136719] [-0.5:1.5] [-26.092464447021484:21.950788497924805] [-1:1] [-14.710171699523926:18.276317596435547] [-1:1] [-0.870991051197052:15.168085098266602] [-0.5:1.5] [-49.531024932861328:0.81006550788879395] [-19.747426986694336:18.845609664916992] [-30.159845352172852:29.373472213745117] [-22.134069442749023:21.444438934326172] [-21.086330413818359:19.828212738037109] [-22.975246429443359:23.3349609375] [-19.944633483886719:20.367900848388672] [-19.015743255615234:18.188961029052734] [-27.72248649597168:27.172306060791016] [-15.473613739013672:13.788183212280273] [-0.786060631275177:26.84675407409668] [-0.81604623794555664:20.854141235351562] [-0.81280285120010376:18.650445938110352] [-0.7342192530632019:26.848062515258789] [-0.78066873550415039:14.235791206359863] [-34.303760528564453:0.79038047790527344] [-24.80207633972168:0.8142693042755127] [-20.178001403808594:0.82029145956039429] [-26.298065185546875:0.73727738857269287] [-14.533933639526367:0.82492995262145996] [-21.679372787475586:26.480993270874023] [-15.933551788330078:15.462091445922852] [-26.621423721313477:25.487268447875977] [-22.874603271484375:21.508956909179688] [-19.052688598632812:18.000699996948242] [-42.939002990722656:22.888191223144531] [-31.203470230102539:18.481698989868164] [-25.911184310913086:17.016544342041016] [-44.943828582763672:18.944936752319336] [-18.643798828125:13.520466804504395] [-25.695396423339844:33.015384674072266] [-20.346996307373047:26.830984115600586] [-16.310068130493164:22.293451309204102] [-21.140108108520508:43.567943572998047] [-16.345790863037109:15.882710456848145] [-22.271230697631836:17.935480117797852] [-17.786876678466797:14.196944236755371] [-13.984457969665527:11.85346508026123] [-19.089776992797852:18.035739898681641] [-9.987879753112793:9.6235837936401367] [-0.96296292543411255:0.96296292543411255] [-0.97674417495727539:0.97674417495727539] [-0.97674417495727539:0.97674417495727539] [-0.96296292543411255:0.96296292543411255] [-1.0230749845504761:0.93781876564025879] [-1.3405873775482178:45.610313415527344] [-1.2977613210678101:34.394809722900391] [-1.2657030820846558:28.061237335205078] [-1.2988512516021729:38.00396728515625] [-1.2227047681808472:19.271354675292969] [-2:2] [-2.9142856597900391:2.9142856597900391] [-3.5972223281860352:3.5972223281860352] [-1.4423075914382935:1.4423075914382935] [-4.8851065635681152:4.8851065635681152] [-2:2] [-2.9142861366271973:2.9142861366271973] [-3.597221851348877:3.597221851348877] [-1.4423075914382935:1.4423075914382935] [-4.8851056098937988:4.8851056098937988] [-2:2] [-2.9142851829528809:2.9142851829528809] [-3.597221851348877:3.597221851348877] [-1.442307710647583:1.442307710647583] [-4.8851070404052734:4.8851070404052734] [-1.2479629516601562:508.73025512695312] [-1.1589020490646362:785.65069580078125] [-1.1001483201980591:923.01654052734375] [-1.2947320938110352:274.57931518554688] [-1.0095880031585693:1560.6866455078125] [-1.2183862924575806:214.45896911621094] [-1.0209572315216064:247.3675537109375] [-0.96078616380691528:476.3692626953125] [-0.92345023155212402:850.53582763671875] [-0.84158605337142944:2249.96630859375] [-0.8208041787147522:2232.952392578125] [-0.81903082132339478:2654.27490234375] [-0.95298177003860474:998.65679931640625] [-0.82514238357543945:2586.0556640625] [-4.5916862487792969:4.6913166046142578] [-9.134307861328125:9.2220964431762695] [-13.656679153442383:13.733268737792969] [-2.2102937698364258:2.3087949752807617] [-27.660018920898438:27.697381973266602] [-4.6913175582885742:4.5916872024536133] [-9.2220935821533203:9.1343050003051758] [-13.73326587677002:13.656676292419434] [-2.3087947368621826:2.2102932929992676] [-27.697370529174805:27.660007476806641] [-4.5916848182678223:4.691314697265625] [-9.1343050003051758:9.2220935821533203] [-13.656676292419434:13.733264923095703] [-2.2102940082550049:2.3087952136993408] [-27.660009384155273:27.697370529174805] [-1.8891937732696533:4.3245582580566406] [-1.5526405572891235:6.055335521697998] [-1.4886693954467773:6.8621206283569336] [-1.8178616762161255:2.5291411876678467] [-1.1688629388809204:8.2191352844238281] [-25.937355041503906:29.504482269287109] [-26.130800247192383:29.259403228759766] [-1.4771155118942261:31.114648818969727] [-26.092462539672852:21.950788497924805] [-0.74606132507324219:38.192611694335938] [-0.90909093618392944:0.90909093618392944] [-1.4775301218032837:30.572969436645508] [-17.550308227539062:19.663599014282227] [-1.5050349235534668:26.258157730102539] [-26.647937774658203:28.292896270751953] [-1.5466164350509644:7.1585431098937988] [-322.33648681640625:2861.241455078125] [-1.5461362600326538:7.1564135551452637] [-13.645247459411621:18.733741760253906] [-2.0246775150299072:31.664960861206055] [-19.7427978515625:20.581052780151367] [-1.1727415323257446:28.453863143920898] [-425.10775756835938:1388.6422119140625] [-1.1727398633956909:28.453821182250977] [-9.1495952606201172:10.55167293548584] [-2.3010196685791016:18.74104118347168] [-13.262111663818359:16.196151733398438] [-0.99827706813812256:80.340614318847656] [-162.62857055664062:1144.4498291015625] [-0.99849939346313477:80.349151611328125] [-2.3385930061340332:13.974863052368164] [-2.599783182144165:8.1623992919921875] [-2.0056760311126709:2.6256191730499268] [-19.490554809570312:15.359335899353027] [-19.350606918334961:9.2892084121704102] [-7.9758133888244629:25.107442855834961] [-0.33519828319549561:1.2220678329467773] [-0.11659017950296402:1.0475615262985229] [-1:1] [-1:0] [-1.2785837650299072:1.1546334028244019] [-2.2944307327270508:3.2133159637451172]
tree_sizes=5088 5032 5219 4409 5017 4933 5124 4786 4741 4405 5121 5126 4501 5135 4742 5306 5544 5126 4975 5037 5036 4454 4270 4902 4565 4653 4891 5061 4940 4592 4280 4662 4677 4378 5144 4639 4579 4746 4572 4572 5058 4472 4813 5143 4562 4192 3801 4371 4128 4062 4784 4278 4584 3914 4385 4953 3182 3858 3993 4017 5405 5055 5157 4321 4869 4500 3983 4696 4024 3913 3796 4102 3537 3529 3889 3645 4317 2620 4219 4118 4187 3935 2503 4122 4109 4005 4256 5109 3990 4093 4640 4132 4174 3467 4101 3629 3700 2980 3324 3357 3356 3831 3739

Tree=0
num_leaves=53
num_cat=0
split_feature=189 184 189 185 25 158 99 189 189 189 158 186 167 80 184 131 179 189 189 189 185 42 54 185 9 185 185 185 158 185 44 189 44 98 9 24 140 185 58 24 42 99 24 50 177 4 161 189 9 180 185 133
split_gain=1641.34 814.411 647.126 734.482 316.175 272.228 253.74 192.766 161.834 159.112 151.348 150.257 125.2 117.404 114.335 115.072 98.4408 80.7125 71.2247 66.5759 66.2539 93.7586 60.3535 59.1888 55.0381 74.1489 54.1684 53.2355 46.0397 43.1714 42.4157 34.9921 33.7647 33.7266 32.3546 29.8004 29.814 23.8481 23.6496 23.1402 20.8564 20.6023 19.09 17.1606 21.3827 16.3537 15.9979 14.6843 12.9764 11.939 11.2294 11.1492
threshold=0.0078117252269294122 -0.31955148279666895 1.3661563992500307 0.47484988160431391 -0.29692891240119929 -0.57334709167480458 0.3305677622556687 0.62306419014930736 0.54744338989257824 -0.83493679761886586 0.74739494919776928 -0.74999999999999989 -0.2658859491348266 0.48062385618686682 -0.31955148279666895 -0.26527018845081324 0.99577835202217113 0.48947948217391973 -0.72101721167564381 0.88165438175201427 -0.11494599655270575 0.54687497019767772 0.80963462591171276 -0.11494599655270575 -0.50000016391277302 -0.11494599655270575 -0.091276746243238435 -0.11494599655270575 -0.71238702535629261 -0.098223134875297533 0.42307691276073461 -0.27115258574485773 0.63846150040626537 0.79294961690902721 -0.50000016391277302 -0.89285108447074879 -0.17986039817333219 -0.0023519379319623108 0.12375611066818239 0.16306287795305255 -0.82812494039535511 -0.77264282107353199 -0.63616284728050221 -1.4420702457427976 -0.23047009110450742 -1.3124999999999998 1.5687266588211062 -1.7819550037384031 0.70000001788139354 1.0534355640411379 0.93432757258415233 -0.094313092529773698
decision_type=2 2 2 2 2 2 2 2 2 2 2 2 2 2 2 2 2 2 2 2 2 2 2 2 2 2 2 2 2 2 2 2 2 2 2 2 2 2 2 2 2 2 2 2 2 2 2 2 2 2 2 2
left_child=5 2 6 -4 17 18 7 11 13 14 24 -2 -9 28 15 -7 26 33 38 30 21 -10 -22 -20 25 -11 -16 -19 -6 -15 -8 -26 -21 41 37 48 -37 -12 47 -36 -18 -3 -29 45 -45 -40 -17 51 -25 -35 -49 -1
right_child=1 4 3 -5 8 9 19 12 20 10 34 -13 -14 29 16 46 40 27 23 32 22 -23 -24 35 31 -27 -28 42 -30 -31 -32 -33 -34 49 39 36 -38 -39 43 -41 -42 -43 -44 44 -46 -47 -48 50 -50 -51 -52 -53
leaf_value=-0.0013119843759058841 0.046308392221990513 -0.0033161942595357008 0.11672568832475913 0.017835083391911855 0.0075531503494378587 -0.037351243364873499 0.010258043496935938 0.068285928646021274 0.029026028556792854 -0.023054150415220551 -0.0061958255815380368 0.013960274825123738 0.032075319377804973 0.015267033569129569 -0.0071512468623561379 -0.013144510924759777 0.0078868940533305433 0.023079544906357871 -0.0096366586755793748 0.031231769308993906 0.0083209399977762707 0.0026295844678132473 0.011330780300128821 0.0075045707659941799 0.0022955608683378642 0.00061797684349586745 -0.001790500774260421 0.0090732915984154238 0.0046824335903444874 0.0085910942249926153 -0.0027667700553746623 0.0043387414248053343 0.010586729641629404 -0.0041537475394243517 0.00067237530435575524 0.0033977421851275284 0.0064714502211803259 -0.0014378964734430549 0.017063689970963643 -0.0024336515188109146 0.0017970618908327886 0.0025086280690682691 0.0045595755412351927 0.0050887787314117579 0.00063028225128231898 0.005413813116432584 0.00079224590974128883 -0.00082038798097776051 0.012845411649947418 0.005306570440033475 0.0041069482942513846 -0.01299918010642373
leaf_weight=166 161 588 135 135 6583 156 602 146 342 120 1602 644 214 981 2007 136 586 148 221 156 25933 187 7802 991 20165 7669 11005 935 21276 7810 358 12053 132 1139 7739 4184 8838 2336 125 2997 3678 7605 8515 1643 2355 780 163 1488 699 134 578 133
leaf_count=166 161 588 135 135 6583 156 602 146 342 120 1602 644 214 981 2007 136 586 148 221 156 25933 187 7802 991 20165 7669 11005 935 21276 7810 358 12053 132 1139 7739 4184 8838 2336 125 2997 3678 7605 8515 1643 2355 780 163 1488 699 134 578 133
internal_value=0.00442631 0.00726427 0.0235486 0.0675122 0.00677849 0.0016469 0.0186053 0.0286683 0.00770054 0.000755878 0.00155676 0.0204738 0.0468969 0.00631475 -0.00171366 -0.0165437 -0.00132189 0.00334868 0.00455314 0.00919969 0.00918273 0.0197091 0.00901722 0.00573858 0.00251271 0.000249792 -0.00261818 0.00528721 0.00536086 0.00933722 0.00539842 0.0030599 0.0218234 0.00138324 -0.00104923 0.00597048 0.00548386 -0.00337566 0.00211767 -0.000195245 0.0026346 0.00208969 0.00500661 0.00330664 0.00246223 0.00703506 -0.00558439 -0.000345718 0.00971725 -0.00315803 0.00055729 -0.00655146
internal_weight=187274 92661 2683 270 89978 94613 2413 1165 70914 72412 54681 805 360 36650 17731 455 17276 19064 22201 1248 34264 529 33735 14933 40007 7789 13012 9598 27859 8791 960 32218 288 9466 14674 14712 13022 3938 7268 10736 4264 8193 9450 4903 3998 905 299 2365 1690 1273 2066 299
internal_count=187274 92661 2683 270 89978 94613 2413 1165 70914 72412 54681 805 360 36650 17731 455 17276 19064 22201 1248 34264 529 33735 14933 40007 7789 13012 9598 27859 8791 960 32218 288 9466 14674 14712 13022 3938 7268 10736 4264 8193 9450 4903 3998 905 299 2365 1690 1273 2066 299
is_linear=0
shrinkage=1


Tree=1
num_leaves=52
num_cat=0
split_feature=189 184 189 25 51 99 189 189 189 34 51 79 173 184 185 30 189 189 185 73 87 185 185 9 185 185 189 85 176 42 189 98 9 68 184 175 185 19 16 185 93 189 99 101 150 179 189 185 50 147 177
split_gain=1544.43 769.436 593.088 293.456 259.978 236.163 162.15 154.598 151.275 147.378 139.476 112.849 104.821 96.33 103.801 86.5348 81.9649 62.2572 61.3413 96.5942 57.2735 56.7671 52.6923 52.6142 69.7056 49.2564 48.0761 46.0596 40.8896 40.0969 33.3323 30.1491 29.481 28.3338 27.8297 27.8101 24.4297 24.171 37.1483 20.3071 22.081 19.4851 18.4854 18.0935 17.9362 17.9113 17.7963 17.2977 11.8668 11.8421 11.1946
threshold=0.0078117252269294122 -0.3230541050434112 1.3661563992500307 -0.29692891240119929 -0.630681812763214 0.3305677622556687 0.54744338989257824 0.62306419014930736 -0.83493679761886586 0.37804876267910009 0.8221343755722047 0.49798595905303961 0.89922162890434276 -0.31955148279666895 0.47484988160431391 0.50000000000000011 0.48947948217391973 -0.72101721167564381 -0.11494599655270575 -0.26771792769432062 -0.19059684872627256 -0.091276746243238435 -0.11494599655270575 -0.50000016391277302 -0.11494599655270575 -0.11494599655270575 0.88165438175201427 -0.68405184149742115 -0.4446322619915008 -0.39062498509883875 -0.27115258574485773 0.79294961690902721 -0.50000016391277302 1.374495327472687 -0.31250207126140589 0.29001913964748388 -0.0023519379319623108 0.11567630991339685 -0.72525691986083973 0.93432757258415233 1.4453850388526919 -0.67313277721405018 -0.77264282107353199 -0.27180148661136622 0.15952617675065997 0.61872830986976635 -1.2991084456443784 -0.072732754051685319 -1.4420702457427976 0.91331237554550182 1.4027226567268374
decision_type=2 2 2 2 2 2 2 2 2 2 2 2 2 2 2 2 2 2 2 2 2 2 2 2 2 2 2 2 2 2 2 2 2 2 2 2 2 2 2 2 2 2 2 2 2 2 2 2 2 2 2
left_child=4 2 5 16 17 7 11 9 12 -2 23 27 13 14 -6 -9 31 39 19 -8 -20 -15 -19 24 -10 -18 28 -5 -7 -13 -25 42 36 35 -27 -24 -12 47 -39 40 46 -34 -3 44 -41 -45 -1 -14 -42 -33 -35
right_child=1 3 -4 6 8 26 18 15 10 -11 32 29 37 21 -16 -17 25 22 20 -21 -22 -23 33 30 -26 34 -28 -29 -30 -31 -32 49 41 50 -36 -37 -38 38 -40 43 48 -43 -44 45 -46 -47 -48 -49 -50 -51 -52
leaf_value=-0.0076256428382189588 0.028750639098499269 -0.0074130201509648589 0.067642673595497999 -0.001864619849344482 -0.038116268342731775 0.0059312029837383304 0.0023692269063976179 0.057828849957961781 -0.026683822285753389 -0.00056826336748687725 -0.010337059759417181 0.0072598712308445225 0.0048382599088542446 -0.011572691719502735 -0.0060643333663609337 0.024428196513071293 0.018076432709325879 -0.01326382324242821 0.0029828716428540198 0.028005090218013812 0.00550725784867186 -0.0060710532719866111 0.001910940941680537 -0.0020913611315836302 -0.0037327907050941399 0.01338414285934585 0.016764603020551379 0.0014377965752320775 -0.0091190129701740757 0.0030659399623439092 -0.00010059034095240959 -0.0090839208279451106 -0.0073665901134003483 0.0038533785668811923 0.00048511239350549376 -0.0011725393919201411 -0.0055653234127815195 -0.020599357335968984 -0.0039759655085487428 0.00070827228045850963 0.0056251998583248886 -0.0039058151067525278 -0.0019005815780977554 -0.0046777008221452927 0.010836517210160721 0.0023770875759464298 -0.0029980517754979027 -0.0016790090047088555 -0.0014087159922987389 -0.0027101063291790754 0.0097668677781434909
leaf_weight=975 410 589 215 4515 187 511 273 170 120 247 1613 3612 415 2010 177 122 148 220 13314 256 20628 10568 9064 20241 7708 152 232 24010 237 4754 12091 910 1749 1304 9353 3709 2418 133 1257 431 324 9027 7633 746 247 571 3214 3082 642 370 370
leaf_count=975 410 589 215 4515 187 511 273 170 120 247 1613 3612 415 2010 177 122 148 220 13314 256 20628 10568 9064 20241 7708 152 232 24010 237 4754 12091 910 1749 1304 9353 3709 2418 133 1257 431 324 9027 7633 746 247 571 3214 3082 642 370 370
internal_value=-2.0924e-05 0.00273198 0.0204906 0.00231113 -0.00271704 0.0152029 0.0031961 0.0258621 -0.00357794 0.017744 -0.00279898 0.00181369 -0.00597918 -0.00739264 -0.0225899 0.0440048 -0.000985838 0.000155529 0.00467547 0.0148047 0.00451717 -0.00695108 0.00127444 -0.00188129 -0.00408798 0.000961146 0.00486504 0.000915036 0.00115681 0.00487731 -0.00134691 -0.00296366 -0.00528767 0.00149673 0.000692775 0.00101554 -0.00747682 -0.00223522 -0.00558021 -0.00213957 -0.00313401 -0.00446815 -0.00229633 0.000430301 0.00440859 -0.00161954 -0.0040767 -0.000904422 0.000953863 -0.00724504 0.00516547
internal_weight=187274 92661 2144 90517 94613 1929 71362 949 72796 657 54967 36891 17829 12942 364 292 19155 21817 34471 529 33942 12578 14667 40160 7828 9653 980 28525 748 8366 32332 9502 14807 14447 9505 12773 4031 4887 1390 7150 5155 10776 8222 1995 678 1317 4189 3497 966 1280 1674
internal_count=187274 92661 2144 90517 94613 1929 71362 949 72796 657 54967 36891 17829 12942 364 292 19155 21817 34471 529 33942 12578 14667 40160 7828 9653 980 28525 748 8366 32332 9502 14807 14447 9505 12773 4031 4887 1390 7150 5155 10776 8222 1995 678 1317 4189 3497 966 1280 1674
is_linear=0
shrinkage=0.03


Tree=2
num_leaves=54
num_cat=0
split_feature=189 184 189 185 25 51 99 189 189 189 186 158 167 71 173 184 185 189 189 185 42 189 113 24 185 51 185 185 185 44 189 44 9 185 68 68 135 24 185 185 32 185 63 162 103 173 42 173 99 12 93 36 150
split_gain=1453.23 725.56 577.036 691.523 279.903 244.622 225.999 172.253 143.027 142.344 140.562 134.471 117.762 107.145 99.0107 93.5444 103.588 71.3852 59.622 58.7183 86.002 58.5775 56.0781 56.0218 81.1286 55.8208 55.615 49.5909 47.1818 39.8266 38.4687 31.8314 28.6732 28.293 28.256 26.6625 24.3615 21.8396 21.0866 20.2668 19.4921 19.1089 20.9491 18.0219 17.0836 15.9527 15.9474 15.7003 15.6034 15.5051 15.2485 12.8096 10.1953
threshold=0.0078117252269294122 -0.31955148279666895 1.3661563992500307 0.47484988160431391 -0.29692891240119929 -0.630681812763214 0.3305677622556687 0.62306419014930736 0.54744338989257824 -0.83493679761886586 -0.74999999999999989 0.74739494919776928 -0.2658859491348266 0.62526905536651622 1.0189831852912905 -0.31955148279666895 0.47484988160431391 0.48947948217391973 0.88165438175201427 -0.11494599655270575 0.54687497019767772 -0.72101721167564381 1.1146125793457033 0.057858539745211608 -0.11533072218298911 -0.99950024485588063 -0.091276746243238435 -0.11494599655270575 -0.11494599655270575 0.42307691276073461 -0.34148783981800074 0.63846150040626537 -0.50000016391277302 -0.10838440805673598 -0.47648297250270838 1.374495327472687 0.15837021917104724 0.16306287795305255 -1.0000000180025095e-35 -0.06188788823783397 0.40476189553737646 0.93432757258415233 1.2093543410301211 0.16372822225093844 -0.42025966942310328 0.48070494830608373 -0.82812494039535511 -0.0071813203394412986 -0.77264282107353199 -0.87499999999999989 -0.44328533113002772 -0.17857142537832257 0.15952617675065997
decision_type=2 2 2 2 2 2 2 2 2 2 2 2 2 2 2 2 2 2 2 2 2 2 2 2 2 2 2 2 2 2 2 2 2 2 2 2 2 2 2 2 2 2 2 2 2 2 2 2 2 2 2 2 2
left_child=5 2 6 -4 17 21 7 10 13 14 -2 23 -9 22 15 16 -7 34 29 20 -10 41 -6 30 -25 -21 -17 -23 -19 -8 -11 -20 38 -15 50 36 -29 -34 -13 40 -16 42 49 -30 52 -46 -41 -44 -36 -1 -3 -37 -43
right_child=1 4 3 -5 8 9 18 12 19 11 -12 32 -14 33 39 26 -18 28 31 25 -22 27 -24 24 -26 -27 -28 35 43 -31 -32 -33 37 -35 48 51 -38 -39 -40 46 -42 44 47 -45 45 -47 -48 -49 -50 -51 -52 -53 -54
leaf_value=0.002365134509800677 0.040089992026763936 -0.0075701808631461181 0.10728605173617217 0.011346245394225287 0.0010231974545844228 -0.036830678278306106 0.0055877593778703933 0.060819262431896462 0.023285492465942661 -0.0019610662340634149 0.0088042933559694947 -0.0099907686133431772 0.025715199884113877 0.017175619950011576 0.006641444986436219 -0.011125732248297406 -0.005578853320498468 0.017537779710036797 0.025556476127332563 0.0065217010479854389 -0.0019943114912058129 -0.012867708580897134 0.0089631052352159065 -0.023011651678848662 -0.0029734542792900155 0.0036271136876561529 -0.0057811970737106713 0.0019226040274489522 0.0028032528857945861 -0.0070332455254159213 0.00044175818751302507 0.0055163514733146454 -0.0035269931323082693 0.0059920000250459505 -0.0074301397849998113 -0.00047122009241352443 -0.00084556423854123715 -0.0065443734895982205 -0.005524444542030044 0.0024609425371163521 -0.0054989825539189215 0.0017417202835950656 -0.0078260004519036079 -0.00022931433815622841 -0.0040183391694302165 0.0021129250076930384 -0.00340883896107567 0.0013692868480502873 -0.0014643274527585601 -0.0047709700455289706 -0.0030824329725889867 0.0062659588653726818 0.01077212382872139
leaf_weight=297 161 1445 135 135 32225 196 602 146 342 13796 644 1620 214 216 434 2081 186 148 156 7802 187 220 820 183 15708 25933 11127 8447 2345 358 10606 132 7739 3389 420 312 4326 2997 2318 479 163 275 193 7105 805 725 3163 1205 6308 3460 1293 1362 190
leaf_count=297 161 1445 135 135 32225 196 602 146 342 13796 644 1620 214 216 434 2081 186 148 156 7802 187 220 820 183 15708 25933 11127 8447 2345 358 10606 132 7739 3389 420 312 4326 2997 2318 479 163 275 193 7105 805 725 3163 1205 6308 3460 1293 1362 190
internal_value=-2.02784e-05 0.00265011 0.0180205 0.059535 0.00219159 -0.00263557 0.0133526 0.0228495 0.00305914 -0.00347066 0.0151034 -0.00271504 0.0400809 0.00175636 -0.00579994 -0.00704848 -0.0216681 -0.00103549 0.004476 0.00445254 0.0143623 0.000150868 0.00122049 -0.00181951 -0.00320565 0.00429673 -0.00662404 0.0012362 0.000787588 0.000878755 -0.000916736 0.0164223 -0.00517378 0.00666666 -0.00288388 0.00145186 0.000985079 -0.00436984 -0.00736385 -0.00179649 0.00332307 -0.00207538 -0.00304003 0.000523429 0.000417531 -0.00111352 -0.00263637 9.51507e-05 -0.0018378 -0.00420636 -0.00545277 0.00501075 0.00544676
internal_weight=187274 92661 2683 270 89978 94613 2413 1165 70914 72796 805 54967 360 36650 17829 13590 382 19064 1248 34264 529 21817 33045 40293 15891 33735 13208 14667 9598 960 24402 288 14674 3605 9466 14447 12773 10736 3938 4239 597 7150 5155 9450 1995 1530 3642 1398 6728 3757 2738 1674 465
internal_count=187274 92661 2683 270 89978 94613 2413 1165 70914 72796 805 54967 360 36650 17829 13590 382 19064 1248 34264 529 21817 33045 40293 15891 33735 13208 14667 9598 960 24402 288 14674 3605 9466 14447 12773 10736 3938 4239 597 7150 5155 9450 1995 1530 3642 1398 6728 3757 2738 1674 465
is_linear=0
shrinkage=0.03


Tree=3
num_leaves=45
num_cat=0
split_feature=158 51 105 29 158 178 184 150 86 184 184 137 10 184 188 184 99 150 32 70 177 188 167 82 26 21 101 173 28 79 63 184 21 73 183 72 184 170 152 104 181 99 110 70
split_gain=462.635 234.084 107.026 59.9228 45.937 39.5036 39.2942 44.9625 38.7883 51.4311 39.7888 80.7029 38.161 37.6378 36.1065 32.2046 53.7455 30.8168 27.526 25.5328 26.7816 24.5822 23.5613 22.1709 21.8699 21.6008 21.1065 19.6782 19.4308 19.0541 26.1205 21.3797 19.8921 18.6622 18.6203 15.1829 14.4583 13.6128 13.1482 16.8208 12.8817 12.7779 12.5399 12.0664
threshold=-0.34527970850467676 0.85164836049079906 2.3865870237350468 -0.23058018088340757 -0.78578892350196827 -0.63965055346488942 -0.3089554756879806 -0.67678159475326527 -0.15812968462705609 -0.3230541050434112 -0.33001491427421564 1.758016109466553 -0.75000005960464466 -0.3230541050434112 0.54780668020248424 -0.31955148279666895 0.14298035204410556 -0.17601845413446424 -0.11904761195182799 -0.30957625806331629 6.1647965908050546 -0.79543554782867421 -0.72828754782676686 0.6553030014038087 -0.78344064950942982 -0.86704617738723744 -0.55646204948425282 1.3700199127197268 -0.50192844867706288 0.7937622368335725 -0.28606167435646052 -0.32654193043708796 -1.16084748506546 -0.53719922900199879 -0.93115082383155812 -0.7470915913581847 1.0349021553993227 -0.53241950273513783 0.54237774014472973 -0.82160076498985279 -0.83182665705680836 0.18258493393659594 1.7669578790664675 0.554641753435135
decision_type=2 2 2 2 2 2 2 2 2 2 2 2 2 2 2 2 2 2 2 2 2 2 2 2 2 2 2 2 2 2 2 2 2 2 2 2 2 2 2 2 2 2 2 2
left_child=2 3 4 8 12 18 7 -5 10 -10 11 -2 13 -1 -9 16 -7 -18 28 22 -21 33 -8 -23 41 -11 43 -12 37 30 31 -6 -32 -14 -15 -28 -30 -3 39 -31 -26 -17 -40 -20
right_child=1 5 -4 6 29 15 19 14 9 25 27 -13 21 34 -16 24 17 -19 26 20 -22 23 -24 -25 40 -27 35 -29 36 38 32 -33 -34 -35 -36 -37 -38 -39 42 -41 -42 -43 -44 -45
leaf_value=0.01779227122341628 0.026758738851230913 0.0013699113689969082 0.023788357982277006 0.019203345026346921 0.014041240287039018 0.015432057493253293 0.014252904272898164 0.00095323075723317081 -0.016261159615119637 0.000544916649875244 -0.00083444330506209465 -0.0023027824394389511 -0.0012420314764030583 0.0087268392782273926 0.010054199477461606 -0.0045137481162948736 -0.014754913930275192 0.0030639735850937931 -0.0039698559170794666 -2.9601188633410253e-05 -0.01134938325002117 0.0013494351909567955 0.0013609093302086571 0.0030994576184537339 8.1916655309635298e-05 -0.0027514371546477011 -0.018015960903664793 0.0019646391618515623 -0.0023406686786572725 0.0052773639889865534 -0.010290997414140569 0.0015818392370474021 -0.00062537096883066141 0.0056792149875294021 0.0038196730213159824 -0.0081298079205365751 0.0058737664454019973 -0.0071919399461739548 -0.00073739465384376369 0.0012973659004929725 -0.0022801984980366503 -0.0025279698166033298 0.008862901800598795 -0.013742583845506329
leaf_weight=192 144 193 206 167 126 238 128 1669 237 2162 23866 211 401 782 512 6509 126 279 1947 39779 188 17100 11749 10528 2433 10365 152 2496 2654 1986 196 5202 7040 2772 6322 1738 207 1232 1420 1843 14231 5293 133 120
leaf_count=192 144 193 206 167 126 238 128 1669 237 2162 23866 211 401 782 512 6509 126 279 1947 39779 188 17100 11749 10528 2433 10365 152 2496 2654 1986 196 5202 7040 2772 6322 1738 207 1232 1420 1843 14231 5293 133 120
internal_value=-1.96329e-05 -0.000996604 0.00225608 -0.000195875 0.00217651 -0.00300465 0.000451767 0.00424685 -0.00108482 -0.00244519 -0.000434843 0.0095276 0.00276599 0.00471684 0.00309335 -0.00248532 0.00414953 -0.00250237 -0.00483806 0.00027981 -8.31307e-05 0.00230375 0.00150104 0.00201639 -0.00263533 -0.00218253 -0.00664232 -0.000569357 -0.00317113 0.000925015 0.000285156 0.00187907 -0.000888568 0.0048044 0.004361 -0.00893399 -0.00174449 -0.00603219 0.0024184 0.00336252 -0.00193534 -0.00362345 8.99556e-05 -0.00454358
internal_weight=187274 131025 56249 93673 56043 37352 54192 2348 39481 12764 26717 355 38097 7296 2181 29109 643 405 8243 51844 39967 30801 11877 27628 28466 12527 3957 26362 4286 17946 12564 5328 7236 3173 7104 1890 2861 1425 5382 3829 16664 11802 1553 2067
internal_count=187274 131025 56249 93673 56043 37352 54192 2348 39481 12764 26717 355 38097 7296 2181 29109 643 405 8243 51844 39967 30801 11877 27628 28466 12527 3957 26362 4286 17946 12564 5328 7236 3173 7104 1890 2861 1425 5382 3829 16664 11802 1553 2067
is_linear=0
shrinkage=0.03


Tree=4
num_leaves=52
num_cat=0
split_feature=189 184 70 189 185 189 158 87 184 51 131 160 108 100 185 178 149 158 69 189 185 189 185 42 108 189 98 186 102 83 189 184 19 21 24 100 185 181 63 173 184 98 29 178 184 5 25 34 102 95 9
split_gain=1369.13 676.369 508.852 346.409 272.866 299.807 201.01 176.98 164.822 127.585 127.054 128.051 125.252 101.643 88.0032 82.3063 81.8409 81.7067 75.121 73.3377 85.0849 71.8382 71.3475 132.921 65.2659 56.1664 50.4331 45.1296 52.4446 44.2642 38.2967 37.4877 36.3774 36.2183 35.7454 33.9718 29.0373 28.6807 28.0488 26.8054 24.7947 24.4771 23.8071 22.6614 19.6962 19.6665 19.0274 17.2857 17.0671 10.1604 9.11028
threshold=0.2918208539485932 -0.31955148279666895 0.5711655616760255 -0.30119411647319788 0.47484988160431391 0.90184643864631664 0.61403506994247448 -0.24502627551555631 -0.31955148279666895 -0.630681812763214 -0.31158606708049769 -0.34455657005310053 0.57520216703414928 -0.26312431693077082 -0.11494599655270575 0.15083790570497516 -0.35950355231761927 -0.61403506994247425 -0.43099616467952723 1.115271329879761 -0.11494599655270575 -1.5702833533287046 -0.11494599655270575 0.046874998137354858 0.54373523592948925 -1.0405182242393491 0.69222643971443187 -0.74999999999999989 0.034648582339286811 0.64264515042305004 0.59844431281089794 -0.31955148279666895 0.10148924961686136 -0.8791632056236266 -0.93533945083618153 -0.1752640828490257 0.93432757258415233 -0.10522307083010672 1.5729304552078249 1.9508082270622256 -0.2196390554308891 0.6033037304878236 0.2939963191747666 -0.28377433121204371 0.12529896572232249 -0.75000005960464466 -0.29692891240119929 -0.18292682617902753 -0.4338375180959701 -0.35920239984989161 -0.50000016391277302
decision_type=2 2 2 2 2 2 2 2 2 2 2 2 2 2 2 2 2 2 2 2 2 2 2 2 2 2 2 2 2 2 2 2 2 2 2 2 2 2 2 2 2 2 2 2 2 2 2 2 2 2 2
left_child=3 2 4 8 5 13 12 19 10 36 11 -1 17 -2 -14 21 -7 31 -13 33 -21 -11 23 -9 40 -17 -16 42 -29 30 -24 -5 -25 50 -19 -6 38 -22 -10 -31 47 49 -12 -42 -38 -37 -35 -8 -43 -26 -3
right_child=1 7 -4 6 35 16 24 22 9 15 27 18 14 -15 26 25 -18 34 -20 20 37 -23 29 32 41 -27 -28 28 -30 39 -32 -33 -34 46 -36 45 44 -39 -40 -41 43 48 -44 -45 -46 -47 -48 -49 -50 -51 -52
leaf_value=-0.0046083397930842913 0.030720991388956707 -0.00099614632450064407 0.079159976964147061 0.012688593515177178 0.018251752637439427 0.034196629588420575 0.0042463301405430932 0.0342405757015889 -0.0021406957093267885 -0.01354213170351687 -0.0043152592287716467 -0.021865575072394373 -0.027103996417893982 0.0039347420380107835 -0.00053827205198277617 -0.0046687902862015103 0.065982722254593479 0.0035634259368558523 -0.052321978519419693 0.028172655016006458 0.0050399232398202617 -0.0048405379136415268 0.0024395289085763884 -0.0096431203292151688 -0.01036838583938589 -0.0016119024478442009 -0.0053623030423460335 -0.026331957543187446 -0.0078006500866877829 0.0078074617749972946 0.004633653958101145 0.0032558807692771468 0.010958865219071297 -0.0013164112661123613 0.00013543731448977737 -0.0062581448941068209 0.0019165946179939041 0.0012073942902775341 0.0025407448110846384 -0.0012496175963014108 -0.0043814538190687594 -0.0151796905704629 0.012080654745999102 -0.0012960983500366931 -0.0085747549336104255 0.00550340673917535 0.00066606462257113501 -0.0017296543105427796 -0.0079972471497991617 -0.0025448871485144347 0.0074102350343635773
leaf_weight=163 224 137 127 392 156 129 777 204 8689 887 216 143 128 295 5863 8264 180 3100 153 125 3870 22468 11281 120 177 15663 2922 165 810 3870 19615 10909 212 7075 23368 164 3904 3220 1327 318 4782 370 125 3883 167 570 11339 989 1552 938 749
leaf_count=163 224 137 127 392 156 129 777 204 8689 887 216 143 128 295 5863 8264 180 3100 153 125 3870 22468 11281 120 177 15663 2922 165 810 3870 19615 10909 212 7075 23368 164 3904 3220 1327 318 4782 370 125 3883 167 570 11339 989 1552 938 749
internal_value=-1.90322e-05 0.00354179 0.0214373 -0.00186684 0.0171267 0.0295119 -0.000237556 0.00301008 -0.00341883 -0.00315804 -0.0124289 -0.0260043 0.000693971 0.0155325 -0.0025047 -0.00390466 0.0528659 0.00144886 -0.0377314 0.00115428 0.00373452 -0.00517158 0.00439144 0.0152453 -0.00346617 -0.00266785 -0.00214323 -0.00767781 -0.0109605 0.00422518 0.00383262 0.00358417 0.00350577 0.000189547 0.000537052 0.00558404 -0.000651959 0.00329975 -0.00152027 0.00711961 -0.00233889 -0.00733595 0.00171272 -0.00299914 0.00148422 0.00287055 -9.56695e-05 0.000900559 -0.0093871 -0.003795 0.00611072
internal_weight=187274 63980 1845 123294 1718 828 60150 62135 63144 61369 1775 459 46682 519 8913 47282 309 37769 296 26515 7215 23355 35620 536 13468 23927 8785 1316 975 35084 30896 11301 332 19300 26468 890 14087 7090 10016 4188 10431 3037 341 8665 4071 734 18414 1766 1922 1115 886
internal_count=187274 63980 1845 123294 1718 828 60150 62135 63144 61369 1775 459 46682 519 8913 47282 309 37769 296 26515 7215 23355 35620 536 13468 23927 8785 1316 975 35084 30896 11301 332 19300 26468 890 14087 7090 10016 4188 10431 3037 341 8665 4071 734 18414 1766 1922 1115 886
is_linear=0
shrinkage=0.03


Tree=5
num_leaves=51
num_cat=0
split_feature=189 184 73 51 185 189 189 87 184 99 108 188 185 37 189 176 106 51 167 185 189 185 185 189 34 51 167 19 34 185 108 62 21 167 101 184 189 97 121 189 25 80 179 11 101 174 179 150 37 185
split_gain=1281 739.677 597.48 329.15 234.702 352.685 234.553 167.387 133.946 147.916 120.844 103.082 95.8097 193.209 89.3412 87.8674 83.745 83.6845 79.722 69.671 61.1997 132.539 61.1049 58.9434 58.3422 53.9571 53.3916 49.23 46.1188 43.0362 40.3438 37.7353 33.5261 29.6455 29.3684 29.2885 29.2338 28.3189 27.2875 25.287 24.7492 24.361 22.8662 22.1706 21.8069 16.4101 15.8898 15.6999 14.359 14.2778
threshold=0.2918208539485932 -0.31955148279666895 0.56623974442482006 -0.8530997335910796 0.47484988160431391 0.90184643864631664 -0.35242453217506403 -0.24408783763647077 -0.31955148279666895 0.087248548865318312 0.66212022304534923 -0.09639283642172812 -0.11494599655270575 0.5249999761581422 -0.30119411647319788 -0.26849880814552302 0.18050809204578402 0.8221343755722047 -0.35794043540954584 -0.11455003917217253 0.80147412419319164 -0.11494599655270575 -0.05488914251327514 -1.1668995618820188 -0.42682926356792444 -0.86436781287193287 -0.063373330980539308 0.96479976177215587 -0.18292682617902753 -0.11146454513072966 -1.1338585019111631 0.1461070999503136 -0.75151196122169484 -0.38437847793102259 -0.039865007624030106 -0.31955148279666895 -0.83493679761886586 0.86745592951774608 0.22595226019620898 0.48947948217391973 -0.24551414698362348 0.8469006121158601 0.080781351774930968 -0.75000008940696705 -0.70131108164787281 -2.0093885660171504 0.78303018212318432 1.0577841997146609 -0.27500000596046442 -0.071694836020469652
decision_type=2 2 2 2 2 2 2 2 2 2 2 2 2 2 2 2 2 2 2 2 2 2 2 2 2 2 2 2 2 2 2 2 2 2 2 2 2 2 2 2 2 2 2 2 2 2 2 2 2 2
left_child=3 2 4 14 5 16 8 20 9 11 17 -5 13 28 29 -7 -2 30 22 -12 32 -22 -10 -20 -11 41 -6 35 -9 33 -8 -21 49 -1 -35 -16 44 -23 47 -27 -34 -14 -19 -37 -31 -38 -28 -29 -40 -3
right_child=1 7 -4 6 26 15 10 12 18 24 19 -13 25 -15 27 -17 -18 42 23 31 21 37 -24 -25 -26 39 46 38 -30 36 -32 -33 40 34 -36 43 45 -39 48 -41 -42 -43 -44 -45 -46 -47 -48 -49 -50 -51
leaf_value=-0.019731770821661616 0.0019721556965734306 0.010499143952869676 0.085629287977237248 -0.015932094605899481 0.02207420065839881 0.034665322455641051 0.0048684615366846561 -0.0089732134168628939 -0.010258557058168973 0.0016332189349963925 -0.025748322678931904 -0.048236891244138991 0.005370843861907019 0.048373275629922066 0.01396668087784201 0.067286095755124412 0.025546399691754585 -0.0034277852707212475 -0.0052301155125861441 -0.005243418724663977 0.026330825001197423 0.0029866743573664155 -0.0048051622737695955 -0.002432912633560136 -0.012908078801175104 0.0016297854357288991 0.00022099068483757121 -0.010881633742670633 0.013087388823394951 0.009749454058123809 0.00010717954058194801 -0.00039863142719045032 -0.0022963059254228848 0.0069443658603598694 -0.011348064109644033 0.0054167445539682439 0.0080914759436622255 -0.00045154530577647329 -0.0021258560372242595 0.0038699539845445997 0.00039305036745308417 0.009905571235995508 -0.00034034330643538532 0.0025290846013911422 -0.0025987016083057969 0.00063565210909543798 0.011094525175904675 0.00038486963508260101 0.0083250890472430939 0.0027558007026301668
leaf_weight=161 267 272 124 214 157 131 1696 120 2449 400 135 153 9148 131 239 184 275 8493 8984 6079 208 9990 7561 27647 653 6031 527 400 289 132 28511 1899 5137 131 196 3386 274 2749 305 18308 7687 1208 2895 8168 4026 7853 156 154 192 1003
leaf_count=161 267 272 124 214 157 131 1696 120 2449 400 135 153 9148 131 239 184 275 8493 8984 6079 208 9990 7561 27647 653 6031 527 400 289 132 28511 1899 5137 131 196 3386 274 2749 305 18308 7687 1208 2895 8168 4026 7853 156 154 192 1003
internal_value=3.07135e-05 0.00347106 0.0223123 -0.00175664 0.017638 0.0286749 -0.00254977 0.00291982 -0.00404412 -0.0131181 -0.00110488 -0.0294942 0.00428239 0.0168112 0.00127039 0.0538726 0.0139583 -0.000451571 -0.00376759 -0.00445393 0.00114459 0.00263371 -0.00614026 -0.00311907 -0.00738801 0.00408691 0.00635701 0.00303705 0.00660874 -0.000506199 0.000374658 -0.00409041 -0.000222947 -0.00923407 -0.00402107 0.00359154 -0.000158776 0.00224475 -0.00318218 0.00331495 -0.000684339 0.00590071 -0.00264301 0.00337573 -0.00220445 0.000887988 0.00271714 -0.00775474 0.00192014 0.00441465
internal_weight=187488 64102 1821 123386 1697 857 97769 62281 48061 1420 49708 367 35235 540 25617 315 542 41595 46641 8113 27046 12947 10010 36631 1053 34695 840 12844 409 12773 30207 7978 14099 488 327 11793 12285 12739 1051 24339 12824 10356 11388 11554 4158 8127 683 554 497 1275
internal_count=187488 64102 1821 123386 1697 857 97769 62281 48061 1420 49708 367 35235 540 25617 315 542 41595 46641 8113 27046 12947 10010 36631 1053 34695 840 12844 409 12773 30207 7978 14099 488 327 11793 12285 12739 1051 24339 12824 10356 11388 11554 4158 8127 683 554 497 1275
is_linear=0
shrinkage=0.03


Tree=6
num_leaves=53
num_cat=0
split_feature=189 184 189 51 187 189 87 189 186 184 102 103 108 189 126 25 189 51 51 178 167 189 160 63 179 21 36 44 98 189 103 17 189 81 25 97 189 101 34 184 187 179 173 101 141 176 128 106 24 101 150 15
split_gain=1207.05 696.504 549.063 278.964 214.13 231.027 209.656 170.234 160.633 145.148 141.603 107.687 104.072 90.831 75.5561 75.1944 69.7767 61.0715 60.6829 53.7793 46.7465 41.8761 41.1155 38.5579 36.4059 35.9788 34.6273 33.8712 33.5028 31.8344 28.6799 28.6145 28.3852 27.5193 26.7092 25.6714 24.1954 22.9702 22.8306 22.6183 20.563 19.5148 18.9921 19.236 18.1184 17.8154 16.0471 12.9479 12.1716 10.6598 7.27967 7.0544
threshold=0.16856195032596591 -0.31955148279666895 1.4968311190605166 -0.83974358439445485 -1.0000000180025095e-35 0.90184643864631664 -0.30414789915084833 -0.36469198763370508 0.75000000000000011 -0.31955148279666895 0.77344450354576122 0.48026710748672491 0.66212022304534923 0.68967705965042125 0.28149004280567175 -0.29692891240119929 -0.77603664994239796 -0.99950024485588063 0.84307691454887401 -0.14011475443840024 -0.4258564412593841 0.48947948217391973 -0.17113471776247022 1.2093543410301211 0.61872830986976635 -0.94169816374778736 0.74999994039535534 -0.69999998807907093 0.72806292772293102 0.59844431281089794 0.16626843810081485 -0.34467612206935877 -0.033016839995980256 0.49510608613491064 -0.24551414698362348 0.86745592951774608 1.3022459745407107 0.29497812688350683 -0.13414634391665456 -0.006661562016233801 -1.0000000180025095e-35 1.1838482618331911 1.4133201241493227 -0.71118324995040882 -1.5660761594772337 0.27871847152709966 -0.43724782764911646 -0.31234990060329432 0.44113217294216162 1.6863963603973391 0.11014026030898096 0.25105454027652746
decision_type=2 2 2 2 2 2 2 2 2 2 2 2 2 2 2 2 2 2 2 2 2 2 2 2 2 2 2 2 2 2 2 2 2 2 2 2 2 2 2 2 2 2 2 2 2 2 2 2 2 2 2 2
left_child=3 2 4 16 19 8 13 9 -6 10 14 -7 18 25 -5 40 42 26 23 -2 -17 33 41 -9 -21 50 29 -12 32 -8 -28 -23 39 -19 -27 36 -15 -20 -24 -18 -11 -14 43 -1 -34 -37 -45 49 -30 -44 -3 -49
right_child=1 6 -4 7 5 11 17 12 -10 15 27 -13 22 35 -16 20 28 21 37 24 -22 31 38 -25 -26 34 30 -29 48 -31 -32 -33 44 -35 -36 45 -38 -39 -40 -41 -42 -43 47 46 -46 -47 -48 51 -50 -51 -52 -53
leaf_value=0.0067709951951485988 0.018364188101731311 0.0110902890146746 0.069771322149433476 -0.029789796076363333 0.023322270591750925 0.067785988182705981 0.0033104781642337364 -0.00029661559135473029 -0.011088582751359426 -0.0040978844179705631 0.0028719710632882055 0.028395353026764103 0.00052387583005257163 0.0018744014523951252 -0.0039848009452849399 -0.0056134968902431777 0.0026332179729127814 0.00069413732759025153 -0.0034718137977038377 -0.0029376690665194271 -0.0025269230134495699 0.005716071895827895 0.0031270306503158145 0.0036825262757232517 0.011623161850424165 -0.0033190935068014835 0.013285480565751386 -0.010045704979983859 -0.003148472277320583 0.0063696260650358411 0.0036823933731799864 0.0031529485853834514 0.015198287718691103 0.003904321157182894 -0.00054170490354458936 -0.0018956399346275548 0.0051639152463449503 5.6871079185669772e-05 -0.0066239518420307146 0.00014101680350566854 -0.0068400167978020779 -0.010437301633589574 0.012239807735331516 -0.0069511813452727217 0.0037836482201794161 0.0024529282628544535 -0.0022873248924156655 -0.0059517530458937729 -0.014930972745362764 0.0017589249800841666 0.0036543937345611776 0.0032417301513316273
leaf_weight=182 211 180 180 481 609 135 6036 23229 152 3832 302 120 1416 6385 130 5195 6347 8913 7616 536 29462 5122 226 2419 216 5626 840 460 219 6221 421 16732 128 3290 6985 2055 2939 2123 4682 6776 6912 162 162 816 4346 1442 3557 167 123 189 348 135
leaf_count=182 211 180 180 481 609 135 6036 23229 152 3832 302 120 1416 6385 130 5195 6347 8913 7616 536 29462 5122 226 2419 216 5626 840 460 219 6221 421 16732 128 3290 6985 2055 2939 2123 4682 6776 6912 162 162 816 4346 1442 3557 167 123 189 348 135
internal_value=2.9831e-05 0.00295515 0.019746 -0.00195086 0.015163 0.0247638 0.0024619 -0.00271663 0.0164436 -0.0039605 -0.0135674 0.0494325 -0.00132712 0.000293356 -0.0243149 -0.00366968 0.000981824 0.00364517 -0.000686749 0.00501857 -0.00298974 0.00296783 -0.00482027 7.88075e-05 0.00125458 -0.00145953 0.0053513 -0.00492905 0.00186931 0.00486353 0.0100848 0.00375391 0.0020502 0.00155987 -0.00178091 0.00208969 0.00291173 -0.00270267 -0.0061744 0.00134649 -0.00586247 -0.000607314 -0.00207488 -0.00276083 0.00411354 -0.000102304 -0.00315899 0.00270683 -0.00741721 0.00661729 0.00620553 -0.00184495
internal_weight=187488 75694 2159 111794 1979 1016 73535 88647 761 46774 1373 255 41873 25960 611 45401 23147 47575 35387 963 34657 34057 6486 25648 752 13139 13518 762 17939 12257 1261 21854 17597 12203 12611 12821 9324 9739 4908 13123 10744 1578 5208 4555 4474 3497 4373 653 342 351 528 302
internal_count=187488 75694 2159 111794 1979 1016 73535 88647 761 46774 1373 255 41873 25960 611 45401 23147 47575 35387 963 34657 34057 6486 25648 752 13139 13518 762 17939 12257 1261 21854 17597 12203 12611 12821 9324 9739 4908 13123 10744 1578 5208 4555 4474 3497 4373 653 342 351 528 302
is_linear=0
shrinkage=0.03


Tree=7
num_leaves=49
num_cat=0
split_feature=189 184 189 87 187 186 51 189 189 189 189 184 161 148 25 179 81 102 24 51 189 189 184 180 106 113 63 132 67 39 54 112 164 98 173 184 161 189 184 101 173 171 40 39 73 20 111 66
split_gain=1137.14 605.903 550.658 245.596 190.133 206.406 184.049 154.118 131.123 112.772 105.875 116.221 108.327 99.8188 78.203 71.1455 71.0149 58.8501 48.678 44.7305 44.1522 42.8528 38.8018 38.5607 37.1981 36.4404 35.2805 33.0324 32.8308 32.1018 31.3461 29.142 26.2803 25.0055 23.8932 22.7899 22.179 21.5341 20.7476 19.8467 22.5586 19.0354 18.2691 16.8171 15.3062 14.8321 12.9012 7.41805
threshold=-0.033016839995980256 -0.3230541050434112 1.3661563992500307 -0.30414789915084833 -1.0000000180025095e-35 0.75000000000000011 -0.86436781287193287 0.83002871274948131 0.59844431281089794 0.48947948217391973 -0.72101721167564381 -0.31955148279666895 1.4432882070541384 -0.31331865489482874 -0.24551414698362348 0.95830208063125621 0.51847058534622203 0.37103055417537695 0.22285144776105884 -0.49074074625968928 -1.2991084456443784 -0.83493679761886586 -0.3160340934991836 0.14892489463090899 -0.35834924876689905 -0.71036520600318898 0.25012417137622839 -0.5483383536338805 1.0000000180025095e-35 0.76829260587692272 0.21190968900918963 0.58226490020751964 -0.46091911196708674 0.702937811613083 1.7097296714782717 -0.006661562016233801 0.35054081678390508 0.28269831836223608 0.80568400025367748 -0.70131108164787281 1.3700199127197268 0.4033376425504685 0.35000000894069677 -0.45121948421001429 0.67987918853759777 0.89548113942146312 0.27814312279224401 0.98520785570144664
decision_type=2 2 2 2 2 2 2 2 2 2 2 2 2 2 2 2 2 2 2 2 2 2 2 2 2 2 2 2 2 2 2 2 2 2 2 2 2 2 2 2 2 2 2 2 2 2 2 2
left_child=6 2 4 8 17 7 21 -6 25 16 11 12 13 -8 26 20 19 -2 23 -5 -13 39 -10 -16 31 37 41 -24 -20 -17 -26 -11 -27 35 -18 42 -19 -3 -28 -1 45 -12 -23 -35 -37 -41 -42 -14
right_child=1 3 -4 9 5 -7 10 -9 22 24 14 15 47 -15 18 29 34 36 28 -21 -22 33 27 -25 30 32 38 -29 -30 -31 -32 -33 -34 43 -36 44 -38 -39 -40 40 46 -43 -44 -45 -46 -47 -48 -49
leaf_value=0.0089213084965226973 0.018131600091860971 -0.0064562785565688337 0.063725191330271422 0.0025668896040627982 0.021312004450403994 -0.0075919975058404508 -0.041766579095822765 0.052407531174324937 0.017338359922156384 0.0045813750844909224 -0.0045288856546212538 -0.0078646103520752918 -0.0067582822593120744 -0.013621686398950209 0.00034563141414566936 -0.0025561907801224205 0.0046398830683332896 -0.011880035371668485 -0.004905896068744621 -9.1401344130277851e-05 -0.0044130381074354774 0.0036132669467926473 0.0050446852634651908 -0.00215315951836199 0.0030329965319104025 0.001141136993916884 -0.00058958088258132305 0.0011879996912358794 -0.0015253331594748034 0.0029673341270977168 0.0054096671914971185 0.0085350603896529337 -0.0018086826257365071 -0.015741777665042762 -0.0025336520332142993 0.00069552867451899952 0.0020160142779370917 -0.0022154576018230559 -0.0053186665743532426 -0.003178177058182225 -0.0022866611120996886 -0.0078111573508921764 0.00027922685137252341 -0.001738836305461817 -0.0030209353953552427 -0.012756685457501781 0.0070165484566120555 0.0028583806173803359
leaf_weight=135 198 2042 211 9425 667 176 190 183 146 3907 6255 4367 135 283 13355 5344 7478 121 5046 14400 14151 4473 2408 9519 16148 3600 2886 11743 5304 1150 7235 2947 11089 125 442 6004 676 2284 1174 3477 237 2136 2210 200 1195 151 307 153
leaf_count=135 198 2042 211 9425 667 176 190 183 146 3907 6255 4367 135 283 13355 5344 7478 121 5046 14400 14151 4473 2408 9519 16148 3600 2886 11743 5304 1150 7235 2947 11089 125 442 6004 676 2284 1174 3477 237 2136 2210 200 1195 151 307 153
internal_value=2.89685e-05 0.0022729 0.0177201 0.00191091 0.0128879 0.0219432 -0.00240363 0.0280604 -0.000166551 0.00302741 -0.00309436 -0.00463173 -0.0161744 -0.0249915 -0.00222678 -0.00427991 0.00177844 0.00353782 -0.00146678 0.000960263 -0.00522738 0.000262016 0.002004 -0.000694287 0.00433857 -0.00179857 -0.00425447 0.00184458 -0.00317379 -0.00157774 0.00376857 0.00628233 -0.00108571 0.00105671 0.00423927 0.00124949 -0.000105918 -0.00421828 -0.00195803 -0.00235899 -0.00272606 -0.00536525 0.00251094 -0.00715635 7.82793e-05 -0.00358025 0.00296674 -0.00165722
internal_weight=187488 97526 2232 95294 2021 1026 89962 850 33312 61982 71448 25773 761 473 45675 25012 31745 995 33224 23825 18518 18514 14297 22874 30237 19015 12451 14151 10350 6494 23383 6854 14689 14207 7920 13882 797 4326 4060 4307 4172 8391 6683 325 7199 3628 544 288
internal_count=187488 97526 2232 95294 2021 1026 89962 850 33312 61982 71448 25773 761 473 45675 25012 31745 995 33224 23825 18518 18514 14297 22874 30237 19015 12451 14151 10350 6494 23383 6854 14689 14207 7920 13882 797 4326 4060 4307 4172 8391 6683 325 7199 3628 544 288
is_linear=0
shrinkage=0.03


Tree=8
num_leaves=49
num_cat=0
split_feature=189 184 189 51 189 185 189 185 37 25 184 131 7 108 189 105 185 178 189 167 73 158 29 51 189 98 108 185 178 186 108 189 178 184 167 178 175 189 184 189 104 66 82 167 103 173 133 20
split_gain=1073.7 624.4 436.759 275.761 196.615 175.741 149.736 141.246 231.949 133.09 114.198 110.25 110.532 105.012 98.1855 91.6374 78.966 77.6043 76.8012 76.3975 74.1555 59.6991 53.8571 52.3037 51.6448 45.2697 43.4199 40.0008 37.8336 37.5575 37.358 32.9889 29.3904 28.9862 28.0831 30.1981 26.7973 25.2057 38.6011 24.158 23.0509 22.0232 19.1084 16.668 16.4089 15.6744 15.6587 8.4628
threshold=0.2918208539485932 -0.3230541050434112 1.4968311190605166 -0.8530997335910796 -0.35242453217506403 0.47484988160431391 0.90184643864631664 -0.11494599655270575 0.67500001192092907 -0.089544512331485734 -0.3160340934991836 -0.2732048481702804 0.37500000000000006 0.55680233240127575 0.86353966593742382 0.52882710099220287 -0.11494599655270575 0.15876051783561709 -0.30119411647319788 -0.44667398929595942 -0.41923154890537256 0.5082070827484132 -0.12507680431008336 -0.86436781287193287 -1.5702833533287046 0.72806292772293102 0.56580069661140453 -0.11146454513072966 -0.14688656479120252 -0.74999999999999989 -0.95136338472366322 0.48947948217391973 1.5585569739341738 -0.31955148279666895 -0.38437847793102259 0.1200740970671177 -0.12461706623435019 1.0029701590538027 -0.3089554756879806 -0.8437955081462859 -0.87411972880363453 0.39339454472064977 -0.01482815947383642 -0.53142300248146046 0.4426839947700501 1.3700199127197268 1.7664907574653628 -0.14864581078290937
decision_type=2 2 2 2 2 2 2 2 2 2 2 2 2 2 2 2 2 2 2 2 2 2 2 2 2 2 2 2 2 2 2 2 2 2 2 2 2 2 2 2 2 2 2 2 2 2 2 2
left_child=3 2 5 18 10 6 19 8 14 37 11 12 -5 21 20 -16 -15 24 27 -2 -3 30 -19 40 -12 -18 33 34 -7 -13 -6 -25 -23 -20 -1 -36 47 42 -39 45 -11 -30 -9 -38 -41 -29 -35 -28
right_child=1 7 -4 4 13 28 -8 9 -10 23 17 29 -14 16 15 -17 25 22 26 -21 -22 32 -24 31 -26 -27 36 39 41 -31 -32 -33 -34 46 35 -37 43 38 -40 44 -42 -43 -44 -45 -46 -47 -48 -49
leaf_value=-0.019116408214214502 0.035048023144955989 -0.013675706244121018 0.071589901176119727 -0.034619673713701359 0.0038240139942547742 0.01932398820531972 0.049082473445077907 -0.00087878981651598974 0.049193424484765276 0.0091591291716859157 -0.011661562955288685 0.0023352864522324956 -0.0054095177596900617 -0.025692668830269369 0.0070650686830855333 0.038827412997005165 -0.0019160798636124216 -0.0040335961278158989 0.014172205014497433 0.0095790556197314324 0.0095644007816761464 -0.0023047207223395602 -0.0011169371486992672 0.0011222037734502064 -0.0043966325759415212 -0.0061088589710962581 -0.0025163729917030871 -0.0027920138452447716 -0.0020036326842131709 -0.0095883741763255672 0.00010985137782072122 0.0033991847654707961 0.0059932772121999191 0.003164541468393517 0.0047665111707314717 -0.013446642234628539 -0.01209875535858463 0.01851660643792933 0.0017332554901052382 5.7086376280544628e-05 0.0047561903323172098 0.011973616977821679 0.0018415556824796567 -0.002575194819642117 0.0032573913258247848 0.0027421914017726375 0.010396736178257995 0.0038365325105601633
leaf_weight=161 161 216 146 300 2707 144 205 10206 143 1196 918 321 191 144 194 141 6577 9261 227 310 286 11925 14810 7578 21348 3579 245 3481 361 912 24380 23454 396 10165 173 154 201 125 5864 6415 10224 140 3008 918 1859 530 276 812
leaf_count=161 161 216 146 300 2707 144 205 10206 143 1196 918 321 191 144 194 141 6577 9261 227 310 286 11925 14810 7578 21348 3579 245 3481 361 912 24380 23454 396 10165 173 154 201 125 5864 6415 10224 140 3008 918 1859 530 276 812
internal_value=2.81095e-05 0.00317782 0.0225181 -0.00160825 -0.00233422 0.0170445 0.0277221 0.00272449 0.0140187 0.00254474 -0.00370239 -0.011282 -0.023291 -0.00101133 0.00795768 0.0205095 -0.00370829 -0.00342015 0.00116243 0.0183408 -0.000442635 -0.000306353 -0.0022392 0.00348217 -0.00469667 -0.00339408 0.00280042 -0.000484765 0.00582809 -0.00648478 0.000481162 0.0028432 -0.00203756 0.00358814 -0.00889921 -0.00382578 -0.00106131 0.000472301 0.00208658 -0.000149819 0.00521807 0.00191826 -0.000259445 -0.00429514 0.000776437 -0.00206024 0.0033567 0.00236302
internal_weight=187488 64102 1467 123386 97769 1321 676 62635 980 61655 48061 1724 491 49708 837 335 10300 46337 25617 471 502 39408 24071 42452 22266 10156 12844 12773 645 1233 27087 31032 12321 10668 488 327 2176 19203 5989 12285 11420 501 13214 1119 8274 4011 10441 1057
internal_count=187488 64102 1467 123386 97769 1321 676 62635 980 61655 48061 1724 491 49708 837 335 10300 46337 25617 471 502 39408 24071 42452 22266 10156 12844 12773 645 1233 27087 31032 12321 10668 488 327 2176 19203 5989 12285 11420 501 13214 1119 8274 4011 10441 1057
is_linear=0
shrinkage=0.03


Tree=9
num_leaves=45
num_cat=0
split_feature=158 158 113 185 29 184 186 188 184 21 173 86 184 39 87 1 133 188 185 176 184 185 167 184 110 21 120 184 137 106 11 84 111 164 7 87 186 4 75 133 152 71 79 152
split_gain=357.038 204.36 102.08 143.925 56.5208 43.959 68.5518 78.4212 42.9701 39.7886 34.9947 34.7879 37.9729 52.5697 34.4572 32.3013 31.6186 31.3809 45.096 29.0723 41.2602 26.5462 26.4957 28.6198 25.7899 21.8122 20.6243 34.4727 61.2071 19.3023 18.7919 18.711 17.6524 16.2097 15.995 16.9496 15.4001 14.0137 13.317 12.5534 11.8086 10.7797 10.6538 8.75351
threshold=0.6552538573741914 -0.78578892350196827 -2.1673201322555538 -1.0000000180025095e-35 -0.23058018088340757 -0.3230541050434112 -0.74999999999999989 0.53430232405662548 -0.25405193865299219 -1.1375793814659116 -0.56766793131828297 -0.15812968462705609 -0.3230541050434112 0.57317072153091442 0.1857169643044472 1.3750000000000002 0.44789923727512365 0.28917063772678381 -0.11494599655270575 -0.21210134029388425 -0.3160340934991836 -0.11533072218298911 -0.50220623612403859 -0.31250207126140589 -1.3670009374618528 -0.78056776523590077 -0.82810226082801808 -0.32654193043708796 0.77095642685890209 0.90057221055030834 -0.75000008940696705 -0.51634615659713734 -0.39799764752387995 -3.0327243804931636 -0.37499999999999994 -0.25103229284286493 -0.74999999999999989 -0.43749999999999994 -0.47559924423694605 0.31244149804115301 0.70113536715507518 -0.95929095149040211 -1.027649939060211 4.5379760265350351
decision_type=2 2 2 2 2 2 2 2 2 2 2 2 2 2 2 2 2 2 2 2 2 2 2 2 2 2 2 2 2 2 2 2 2 2 2 2 2 2 2 2 2 2 2 2
left_child=1 2 3 -1 11 6 -6 -8 15 10 -7 19 13 -13 21 26 42 34 -19 33 -21 -4 23 -16 -11 -14 -2 28 -28 -23 -24 40 -33 -3 35 39 38 -37 -36 -10 -20 -29 -17 -38
right_child=8 4 14 -5 5 9 7 -9 17 24 -12 12 25 -15 22 16 -18 18 31 20 -22 29 30 -25 -26 -27 27 41 -30 -31 -32 32 -34 -35 36 37 43 -39 -40 -41 -42 -43 -44 -45
leaf_value=-0.00082245337463915348 -0.0097910360714875307 0.0023153440641693031 -0.011036956264354476 0.0451615818113104 0.020578627587690995 -0.015396283568644031 -0.0013957984939690804 0.017744635671324394 -0.0060201974035273623 0.0056659984439968126 -0.0023344285029911582 -0.026635722610469263 0.00037947978939296127 -0.0001565846260232122 0.018974819695431504 -0.0034208157202851763 0.018479853952448142 0.013854791123639135 -0.0042009992035192106 0.010071655610461026 0.00030239774075050633 0.0017414262941828015 0.0043112619686991802 0.0046126362762674827 0.0005264553365512837 -0.0024936822774637045 0.024632617117714188 0.0021247832850599222 -0.0020477612449142793 -0.0020779531342190946 0.002096721508956977 0.0022191535833954198 -0.0016227957986649057 -0.001812304931472079 -0.006752516548652561 0.0075198814141913314 -0.002476108853267529 -0.0027236890312787579 -0.0028951513372567927 -0.0033036009000483044 -0.00018158672968274914 -0.0018125490239988124 0.0083720735720608647 0.0047957536916168322
leaf_weight=124 210 937 157 120 236 204 875 246 4881 890 1862 132 3082 137 127 156 160 169 3047 397 17386 11250 4436 5317 63747 10407 134 794 181 1331 15508 1454 4135 9843 1528 127 11782 1982 1708 2237 839 2941 122 150
leaf_count=124 210 937 157 120 236 204 875 246 4881 890 1862 132 3082 137 127 156 160 169 3047 397 17386 11250 4436 5317 63747 10407 134 794 181 1331 15508 1454 4135 9843 1528 127 11782 1982 1708 2237 839 2941 122 150
internal_value=2.73015e-05 0.000695379 0.00258134 0.0218847 3.97732e-05 0.000575086 0.00591851 0.00281658 -0.00253808 0.000466293 -0.003631 -0.000821102 -0.00206036 -0.0132006 0.00245724 0.000151402 0.00789967 -0.00290927 -0.00146033 -0.000224136 0.000521047 0.00118385 0.00309606 0.00495111 0.000597309 -0.00183724 -0.000646917 -0.000170478 0.00934402 0.00133722 0.00258948 -0.00173493 -0.00062308 -0.00145335 -0.003482 -0.00446712 -0.00288247 -0.00210357 -0.00471808 -0.00516703 -0.00333346 -0.000975192 0.00176594 -0.0023843
internal_weight=187488 148751 38370 244 110381 68060 1357 1121 38737 66703 2066 42321 13758 269 38126 4698 438 34039 9644 28563 17783 12738 25388 5444 64637 13489 4260 4050 315 12581 19944 9475 5589 10780 24395 9227 15168 2109 3236 7118 3886 3735 278 11932
internal_count=187488 148751 38370 244 110381 68060 1357 1121 38737 66703 2066 42321 13758 269 38126 4698 438 34039 9644 28563 17783 12738 25388 5444 64637 13489 4260 4050 315 12581 19944 9475 5589 10780 24395 9227 15168 2109 3236 7118 3886 3735 278 11932
is_linear=0
shrinkage=0.03


Tree=10
num_leaves=53
num_cat=0
split_feature=189 184 73 189 158 99 189 87 184 99 69 189 187 176 2 88 108 189 167 52 189 189 189 173 54 1 187 101 37 170 170 34 181 21 88 189 75 132 73 21 42 189 108 167 167 170 49 108 178 189 173 18
split_gain=1010.94 468.875 436.264 255.094 218.855 196.591 142.449 132.837 106.159 119.37 98.055 80.8113 87.1668 68.3776 62.2564 60.6317 57.1356 55.7109 52.5573 48.8059 48.7207 47.7027 44.6982 44.6734 43.3945 41.3652 39.9797 35.335 35.2325 31.5596 40.5418 31.0159 30.4872 30.008 29.9762 29.8993 29.781 28.7504 27.4852 27.2606 27.039 26.4585 25.049 21.8085 20.3318 20.2466 18.7107 18.6799 18.4668 18.0257 14.2716 12.0467
threshold=0.2918208539485932 -0.31955148279666895 0.56623974442482006 -0.70584723353385914 0.67293629050254833 0.32006740570068365 0.82705858349800121 -0.24371246248483655 -0.3230541050434112 0.014328863937407734 0.43215049803256994 0.88165438175201427 -1.0000000180025095e-35 -0.35867843031883234 0.41666667163372045 2.0094661712646489 0.87950634956359874 1.3271738886833193 -0.35794043540954584 0.035066889598965652 -0.12112610042095183 -0.18342990428209302 -1.2991084456443784 1.2136780619621279 0.1900206804275513 0.87500000000000011 -1.0000000180025095e-35 1.2629547119140627 0.7749999761581422 -0.41069386899471277 -1.9206153154373167 0.35365855693817144 0.73931598663330089 -0.8791632056236266 0.77036961913108837 -1.8923980593681333 0.5120997726917268 0.28232282400131231 -0.05691674351692199 -0.81130427122116078 -0.79687494039535511 0.48947948217391973 0.33543521165847784 -0.78895425796508778 -0.20022796094417569 0.47127722203731542 0.71008405089378368 1.5688837766647341 -0.30554658174514765 -0.11970019340515135 -0.18206018954515454 0.72699731588363659
decision_type=2 2 2 2 2 2 2 2 2 2 2 2 2 2 2 2 2 2 2 2 2 2 2 2 2 2 2 2 2 2 2 2 2 2 2 2 2 2 2 2 2 2 2 2 2 2 2 2 2 2 2 2
left_child=3 2 5 8 10 6 14 17 9 -1 16 19 -13 -8 -2 22 20 33 38 -7 -5 32 23 -10 39 34 -24 -27 44 30 -11 -23 -12 50 -19 37 -18 -17 43 46 -37 -41 49 -6 -26 -30 -9 -35 -40 -20 -3 -44
right_child=1 7 -4 4 18 11 13 24 15 29 21 12 -14 -15 -16 35 36 25 42 -21 -22 31 26 -25 28 27 -28 -29 45 -31 -32 -33 -34 47 -36 40 -38 -39 48 41 -42 -43 51 -45 -46 -47 -48 -49 -50 -51 -52 -53
leaf_value=-0.038094634498120283 0.0074655770963576971 0.00097650820766870456 0.072062156091311141 -0.001233280643535847 -0.014390766549330221 -0.013678966930006618 0.028022748165197304 0.0072784008951151096 -0.0075133017986432349 -0.0039927126814682887 -0.00055505526105067819 0.0051661890248368772 0.034486562648063733 0.058346483172442676 0.030573902511101515 -0.0025516898137245099 -0.0048180217679812936 0.001217510847723481 -0.0025888394248402189 0.0050752865473500412 0.00067947116061244973 0.0043796713116180221 -0.0015861051682495727 -0.0012787085988855702 0.0063467244433341383 0.011402991978740709 -0.0043976703050783673 0.0018274884436826752 0.012936305744124485 0.0043635803796784126 -0.022353480406417488 0.0008142706114790464 0.0045658200219897728 0.00042804547296765712 0.012817673987851271 0.0037204795117484822 0.0012896510763451389 -0.016421103775982097 -0.0038639136786674097 0.00087612951504469582 -0.0013483347987738774 0.0033664645385232772 -0.003631494966568425 -0.0068413860170586536 0.0037563402280624001 0.0023313943303904486 -0.0021298355945245416 -0.0034951074721435008 -0.011028934770850519 0.0002733320539419942 0.0083390723686409939 -0.0083828860180969328
leaf_weight=159 304 384 125 25361 421 222 142 1897 5295 233 7072 283 134 132 160 502 4028 2797 4686 283 22722 7020 6863 1286 4638 1005 13525 530 781 128 202 3196 1227 20433 215 1486 874 183 5121 5089 2608 15650 2999 1907 6636 205 211 1153 345 3429 619 572
leaf_count=159 304 384 125 25361 421 222 142 1897 5295 233 7072 283 134 132 160 502 4028 2797 4686 283 22722 7020 6863 1286 4638 1005 13525 530 781 128 202 3196 1227 20433 215 1486 874 183 5121 5089 2608 15650 2999 1907 6636 205 211 1153 345 3429 619 572
internal_value=1.65402e-05 0.00307544 0.0182309 -0.00156999 -0.000755277 0.0141364 0.0256654 0.00264053 -0.00385269 -0.0152203 1.27496e-05 0.00489042 0.014648 0.0427903 0.0154826 -0.0035937 -0.000643985 0.0010641 -0.00357412 -0.0031799 -0.000329399 0.00189208 -0.00414557 -0.00629537 0.00385897 0.00409345 -0.00345137 0.00810013 0.00529889 -0.00870417 -0.0125506 0.00326445 0.000202521 0.000454161 0.00204952 -0.000479171 -0.00372902 -0.00627549 -0.00548214 0.00308609 0.000491953 0.00275545 -0.00230121 -0.00821222 0.00482246 0.010736 0.00633612 0.000218341 -0.00431809 -0.00137954 0.00552408 -0.0043947
internal_weight=187478 64028 1785 123450 90980 1660 738 62243 32470 722 71500 922 417 274 464 31748 52985 27136 19480 505 48083 18515 26969 6581 35107 4547 20388 1535 12260 563 435 10216 8299 22589 3012 4779 4902 685 7794 22847 4094 20739 11686 2328 11274 986 2108 21586 5466 8115 1003 3571
internal_count=187478 64028 1785 123450 90980 1660 738 62243 32470 722 71500 922 417 274 464 31748 52985 27136 19480 505 48083 18515 26969 6581 35107 4547 20388 1535 12260 563 435 10216 8299 22589 3012 4779 4902 685 7794 22847 4094 20739 11686 2328 11274 986 2108 21586 5466 8115 1003 3571
is_linear=0
shrinkage=0.03


Tree=11
num_leaves=53
num_cat=0
split_feature=189 184 73 189 158 99 189 87 184 99 51 189 176 179 189 102 161 44 189 52 14 7 104 50 189 183 1 172 189 101 98 54 170 170 21 88 173 176 83 21 189 113 178 189 164 189 9 170 179 115 98 180
split_gain=951.268 441.386 410.69 240.029 205.93 185.047 134.101 124.985 99.9285 112.363 92.8506 76.0649 64.3781 61.3662 72.0624 59.9786 59.4819 54.8935 52.4235 45.9335 44.9522 41.9874 40.8634 40.7922 39.5893 46.3486 38.9221 36.8799 36.4073 33.2484 32.8359 31.268 29.7046 38.1577 28.2376 28.2134 28.0082 27.5621 25.2628 24.4911 21.5626 20.5917 18.4938 18.319 18.2618 16.7279 15.3492 14.3491 13.6643 12.3318 11.3362 10.0875
threshold=0.2918208539485932 -0.31955148279666895 0.56623974442482006 -0.70584723353385914 0.67293629050254833 0.32006740570068365 0.82705858349800121 -0.24371246248483655 -0.3230541050434112 0.014328863937407734 -0.40588235855102534 0.88165438175201427 -0.34983825683593744 0.99577835202217113 -1.2991084456443784 1.4213822484016421 -0.49719206988811487 0.49999992549419409 1.3271738886833193 0.035066889598965652 -0.30000013858079905 -1.0000000180025095e-35 -0.90692642331123341 0.23109846562147143 -0.033016839995980256 -0.5568171739578246 0.87500000000000011 -1.4233449697494505 -0.12112610042095183 1.2629547119140627 -0.95734468102455128 0.1900206804275513 -0.41069386899471277 -1.9206153154373167 -0.8791632056236266 0.77036961913108837 0.47017842531204229 0.17582257091999057 0.56092926859855663 0.5552583932876588 0.48947948217391973 -0.61560797691345204 -0.48309426009654993 0.48947948217391973 1.2589697837829592 -0.3771513551473617 0.29999995976686483 -0.57139408588409413 -0.13246207684278485 0.76814422011375438 -0.5108816623687743 -0.35924257338047022
decision_type=2 2 2 2 2 2 2 2 2 2 2 2 2 2 2 2 2 2 2 2 2 2 2 2 2 2 2 2 2 2 2 2 2 2 2 2 2 2 2 2 2 2 2 2 2 2 2 2 2 2 2 2
left_child=3 2 5 8 10 6 16 18 9 -1 24 19 -8 14 20 -13 -2 28 34 -7 -10 41 38 -16 27 -26 35 -5 -12 -28 51 40 33 -11 48 -20 -33 -19 47 -32 -24 42 -6 -36 -40 -43 50 -9 -3 -48 -23 -15
right_child=1 7 -4 4 21 11 12 22 13 32 17 15 -14 30 23 -17 -18 37 26 -21 -22 46 31 -25 25 -27 29 -29 -30 -31 39 36 -34 -35 43 -37 -38 -39 44 -41 -42 45 -44 -45 -46 -47 49 -49 -50 -51 -52 -53
leaf_value=-0.036958938097581266 0.033124626926415837 0.0012703725613668415 0.069917448700982182 0.0053615834227009954 -0.010910228564500916 -0.013270438252467947 0.027289438721491022 0.0089134035452767876 -0.0039743727215195562 -0.0038734429591120432 -0.0012558579491056153 0.028942650510311627 0.056721417613073505 0.0008847105221631115 -0.0022119941953742351 0.0054195178196475109 0.0086274742224942066 -0.0019022658980608568 0.0011809985593662466 0.0049235642380261483 -0.009438876207199522 -0.00038092291796926273 0.00097043804347822732 -0.005074263715199639 0.0062360106073679252 0.0016314369125871788 0.011061242209760394 0.00014237724448850944 0.00061946708265140456 0.001772767054337987 -0.00079863331155094399 0.0056418902278962324 0.0042336879389057317 -0.021686179706542363 -0.0012005682495194198 0.012434923966906758 0.0023090960755381747 -0.0058433978781290124 0.010335212417497056 -0.005897902177388786 0.0032401058164905766 -0.0066662669535693568 -0.0053727882316826174 0.0007525227455562883 0.0012359994820221082 -0.0032696289560202314 -0.0012641161186454925 0.0030742904958302631 0.0083573330738075033 0.0049981226027011874 -0.0039622726046457547 0.011082752612823123
leaf_weight=159 120 425 125 1318 825 222 143 490 2304 233 19731 155 131 135 11611 262 344 4686 2797 283 3296 994 5016 7300 2743 6956 1005 15992 17651 530 5865 7755 128 202 5976 215 3211 2423 1597 990 15144 1706 1597 15610 227 5565 4506 1667 578 301 3986 247
leaf_count=159 120 425 125 1318 825 222 143 490 2304 233 19731 155 131 135 11611 262 344 4686 2797 283 3296 994 5016 7300 2743 6956 1005 15992 17651 530 5865 7755 128 202 5976 215 3211 2423 1597 990 15144 1706 1597 15610 227 5565 4506 1667 578 301 3986 247
internal_value=1.60695e-05 0.00298332 0.0176878 -0.00152292 -0.000732634 0.0137151 0.0249005 0.00256135 -0.0037372 -0.0147662 1.23693e-05 0.00474471 0.041516 -0.00348592 -0.00420259 0.0142115 0.0150206 -0.000829949 0.00103222 -0.00308501 -0.00719173 -0.00346698 0.00374323 -0.00331709 0.00139987 0.00293418 0.00397083 0.000540059 -0.000370376 0.00785739 -0.00105841 0.00337698 -0.00844421 -0.0121759 0.000440545 0.00198818 0.0046663 -0.00324618 0.00660519 -0.00153582 0.00267547 -0.00486648 -0.00726272 0.000211787 0.0092041 -0.00406739 -0.00208056 0.00440426 0.00535864 -0.000871035 -0.00324766 0.00749045
internal_weight=187478 64028 1785 123450 90980 1660 738 62243 32470 722 71500 922 274 31748 24511 417 464 44491 27136 505 5600 19480 35107 18911 27009 9699 4547 17310 37382 1535 7237 31126 563 435 22589 3012 10966 7109 3981 6855 20160 9693 2422 21586 1824 7271 9787 2157 1003 4807 4980 382
internal_count=187478 64028 1785 123450 90980 1660 738 62243 32470 722 71500 922 274 31748 24511 417 464 44491 27136 505 5600 19480 35107 18911 27009 9699 4547 17310 37382 1535 7237 31126 563 435 22589 3012 10966 7109 3981 6855 20160 9693 2422 21586 1824 7271 9787 2157 1003 4807 4980 382
is_linear=0
shrinkage=0.03


Tree=12
num_leaves=46
num_cat=0
split_feature=158 158 156 29 1 167 12 20 185 86 184 184 151 184 186 184 22 184 42 88 68 29 80 173 167 167 167 29 77 185 149 185 128 184 76 173 28 152 164 170 99 100 85 180 100
split_gain=298.605 170.448 59.2657 50.9921 42.4311 34.0777 28.799 27.6399 27.0701 25.811 46.2341 27.8579 53.1123 24.8581 23.6735 59.6379 24.3176 23.4263 22.4914 21.9202 20.8095 20.4304 19.4353 19.0342 18.991 18.8818 18.279 18.0837 17.9711 17.8673 17.4991 17.137 15.7942 15.4579 19.951 15.0121 14.1524 13.8876 13.8721 13.0765 11.7154 12.1392 11.4425 9.81065 8.24734
threshold=0.6552538573741914 -0.78578892350196827 1.4184486918367158e-09 -0.23058018088340757 0.87500000000000011 -0.35794043540954584 -0.87499999999999989 -0.71323955059051503 -0.0039093242958188048 -0.15812968462705609 -0.32654193043708796 -0.33001491427421564 -0.12977709621191022 -0.28737321496009821 1.0000000180025095e-35 -0.31250207126140589 -0.7382386028766631 -0.33347298204898829 0.70312497019767772 0.27981519699096685 -0.17203837633132932 0.091328006237745299 -0.45593617856502527 1.3700199127197268 -0.99314534664154042 -0.72828754782676686 -0.56873336434364308 -0.079127535223960863 -0.18723175674676892 -0.11414284631609915 -0.37234754860401148 -0.11240203678607939 -0.20205679535865781 -0.3160340934991836 -0.43710298836231226 -0.737311691045761 -1.1409385204315183 0.6545529067516328 3.5495810508728032 2.2189080715179448 -0.17558362334966657 -0.51588138937950123 -2.875988125801086 -0.036891292780637734 0.7311643958091737
decision_type=2 2 2 2 2 2 2 2 2 2 2 2 2 2 2 2 2 2 2 2 2 2 2 2 2 2 2 2 2 2 2 2 2 2 2 2 2 2 2 2 2 2 2 2 2
left_child=1 2 6 9 8 14 7 37 24 11 -11 12 -3 20 15 -2 26 -10 22 25 -6 35 -17 -13 -5 -18 -16 33 -21 -29 -12 -23 -9 34 36 -8 -7 -1 42 -15 41 -31 -35 -20 -42
right_child=5 3 -4 4 13 27 21 32 17 10 30 23 -14 39 16 18 19 -19 43 28 -22 31 -24 -25 -26 -27 -28 29 -30 40 -32 -33 -34 38 -36 -37 -38 -39 -40 -41 44 -43 -44 -45 -46
leaf_value=0.012975608176741826 0.014792538128536321 0.023718753597765627 0.019104979471081779 -0.0070272190096738393 0.013361734602112846 0.0049839187813706179 0.0035466577937245565 0.00046339608099085989 0.011005057089564218 -0.016140546216212436 -0.0033859825620227717 -0.00063746131383456703 -0.00024856553506674017 0.0018424070284113016 -0.017896671413619891 0.00058094661438195107 -0.0080990009281754569 0.00085416554588721178 -0.015441318969053288 -0.0043915578523359283 0.0022454938487803089 -0.002041145125892087 -0.0032615265582920188 0.0020090620371717711 -0.0002524046090102524 -0.0037840343594708454 -0.0054875172191588837 0.0086722962268357805 0.0066580810877772522 -0.0048342098857808323 -0.00097889955611136213 0.0027105140856651068 0.0052291161529813895 -0.010698992183559561 0.01343599890675554 0.00062691181207932974 -0.0060891654077611526 0.0032488733925093269 0.0052762929654934189 0.0072801949610056486 -0.0022334397001214428 0.0022289594881216524 -0.0024261626161872787 -0.0062961126136562564 5.5633872849942017e-05
leaf_weight=489 173 125 188 376 351 214 1853 965 205 200 3759 25529 245 5379 225 1447 1409 30612 153 261 267 705 6528 2704 30452 2599 205 185 267 251 9815 21341 1781 151 121 10923 200 182 208 429 3803 1673 15928 345 2257
leaf_count=489 173 125 188 376 351 214 1853 965 205 200 3759 25529 245 5379 225 1447 1409 30612 153 261 267 705 6528 2704 30452 2599 205 185 267 251 9815 21341 1781 151 121 10923 200 182 208 429 3803 1673 15928 345 2257
internal_value=1.5619e-05 0.00062529 0.00234621 2.65349e-05 0.000535134 -0.00233557 0.00226331 0.00489132 0.000293285 -0.000790431 -0.00185731 -0.000276621 0.00789061 0.00285479 -0.00354332 -0.00259464 -0.00519416 0.000922046 -0.00295135 -0.0045458 0.00857047 0.0020053 -0.00256436 -0.00038393 -0.00033526 -0.00530259 -0.0120071 -0.00167763 0.00119807 -0.000519496 -0.00164568 0.00255848 0.00355512 -0.00223997 0.0027739 0.00105063 -0.00036718 0.0103461 -0.00240483 0.00224525 -0.000733541 0.00130548 -0.00250451 -0.0091311 -0.00138102
internal_weight=187478 148875 38427 110448 68071 38603 38239 3417 61645 42377 13774 28603 370 6426 13612 8646 4966 30817 8473 4536 618 34822 7975 28233 30828 4008 430 24991 528 8169 13574 22046 2746 16822 535 12776 414 671 16287 5808 7984 1924 16079 498 6060
internal_count=187478 148875 38427 110448 68071 38603 38239 3417 61645 42377 13774 28603 370 6426 13612 8646 4966 30817 8473 4536 618 34822 7975 28233 30828 4008 430 24991 528 8169 13574 22046 2746 16822 535 12776 414 671 16287 5808 7984 1924 16079 498 6060
is_linear=0
shrinkage=0.03


Tree=13
num_leaves=53
num_cat=0
split_feature=189 184 71 189 50 72 189 184 167 131 87 24 158 189 113 108 132 189 45 189 167 179 68 71 187 93 97 69 170 100 189 184 1 49 21 88 21 24 100 25 42 108 14 130 102 184 137 179 179 179 9 84
split_gain=894.111 411.566 383.375 227.789 157.753 152.594 227.061 116.268 166.483 166.244 113.116 83.0633 80.5942 73.8176 72.0751 69.4889 69.4452 49.8109 45.4064 44.5947 52.2966 47.4241 40.413 40.0259 34.6713 40.0039 34.2072 31.298 30.5194 29.2685 29.3401 29.0324 28.6227 28.4605 33.9612 27.1908 26.7932 24.5468 24.0419 22.5808 21.8237 21.0611 20.9219 19.8481 17.4838 17.163 15.8287 14.0818 13.0726 11.9599 10.1583 9.03843
threshold=0.2918208539485932 -0.31955148279666895 0.59812968969345104 -0.30119411647319788 -0.26567339897155756 -0.84360697865486134 0.90184643864631664 -0.3230541050434112 -0.11884668841958045 -0.28126053512096399 -0.24502627551555631 0.28474786877632147 -0.23325359821319577 -0.4361878484487533 -0.46908056735992426 0.55680233240127575 -0.47500658035278315 1.1623074412345888 1.4797391295433047 -0.8437955081462859 -0.40457735955715174 0.99577835202217113 -0.44753096997737879 0.70580884814262401 -1.0000000180025095e-35 1.0876772403717043 0.87607410550117504 0.511308252811432 0.47127722203731542 0.0068218207452446231 0.83002871274948131 0.065366171300411238 0.87500000000000011 0.69397994875907909 -0.81130427122116078 0.79055440425872814 -0.8791632056236266 -1.009593605995178 2.5873053073883061 -0.077812284231185899 -0.20312499999999997 1.5688837766647341 -1.0000000180025095e-35 0.16036258637905124 -0.45386630296707148 -0.31955148279666895 -0.043644348159432404 1.1838482618331911 0.050654506310820586 -0.62061238288879383 1.0000000180025095e-35 0.60262235999107372
decision_type=2 2 2 2 2 2 2 2 2 2 2 2 2 2 2 2 2 2 2 2 2 2 2 2 2 2 2 2 2 2 2 2 2 2 2 2 2 2 2 2 2 2 2 2 2 2 2 2 2 2 2 2
left_child=3 2 5 7 14 29 11 8 9 -1 17 -7 24 18 43 26 -8 36 -10 21 -21 -14 39 33 31 -26 37 42 40 -2 -31 -9 35 34 -12 -19 50 -6 -34 -17 -25 -38 -16 44 -5 -29 -30 -24 -28 -45 -3 -35
right_child=1 10 -4 4 15 6 16 12 13 -11 23 -13 19 -15 27 22 -18 32 -20 20 -22 -23 47 28 25 -27 48 45 46 30 -32 -33 38 51 -36 -37 41 -39 -40 -41 -42 -43 -44 49 -46 -47 -48 -49 -50 -51 -52 -53
leaf_value=-0.05635798065206752 0.015835146530013944 0.0017794112120803052 0.067770539498627186 -0.0085826753563694527 0.0027305430109545708 0.023357563108061988 0.055696368898331586 0.0011804708992533418 -0.01460487524612232 -0.012518596516231896 0.007052300501469458 0.0011550777257003193 -0.0059309876039999208 0.0098911743243203856 0.0029926302899258451 -0.0074610429808420415 0.026381506737528575 0.0012656586423952342 -0.0003842946364768321 -0.0050567262302625392 -0.0018486490398302797 -0.0016992907887632203 -0.00068633289930323735 0.010037237604083019 -0.0027718460819077697 0.00071351140232853367 -0.004074505427284816 0.01382796557477103 -0.0067133389350921748 -0.0065305634266857445 0.0066055166754112752 -0.0037890718748133357 0.0073127444892994555 -0.0022627296568150145 0.003226222284577768 0.010907010428435119 0.00023282258168087866 -0.00051642140711564218 -0.001932756479355942 -0.0033778579824884228 0.001718775360655468 -0.0044204937625668805 0.00022861772480832932 0.0059685717922560982 -0.0020298842725080344 0.0040628309709060673 0.0044845988777828458 -0.0076697762772546217 -0.00033672532510083499 -0.00020151839414538279 0.0081539971968260256 0.00260433935607125
leaf_weight=129 134 411 124 438 2300 271 167 6740 563 196 2248 343 9536 220 5225 2529 134 4179 315 6158 17772 3179 3184 1786 13265 3816 3224 165 178 289 323 1254 1883 1042 29318 280 18050 23460 292 2358 338 919 4665 337 2225 7046 310 282 1140 1729 498 511
leaf_count=129 134 411 124 438 2300 271 167 6740 563 196 2248 343 9536 220 5225 2529 134 4179 315 6158 17772 3179 3184 1786 13265 3816 3224 165 178 289 323 1254 1883 1042 29318 280 18050 23460 292 2358 338 919 4665 337 2225 7046 310 282 1140 1729 498 511
internal_value=1.51577e-05 0.00289188 0.017091 -0.00147688 -0.00015825 0.0132691 0.0214728 -0.00273627 -0.0112116 -0.030039 0.00248441 0.0109766 -0.00254068 -0.00561659 0.00187874 -0.00131396 0.0427765 0.000999661 -0.0095092 -0.00343743 -0.00267437 -0.0048732 -0.0037349 0.00358603 -0.00123008 -0.0019932 -0.000642565 0.0027852 0.00716121 0.00319152 0.000401834 0.000400534 0.00325037 0.00330385 0.00349891 0.00187339 0.000248392 -0.000226419 0.00607119 -0.00549198 0.00871492 7.16005e-06 0.00168903 -0.00139906 -0.00311048 0.00428816 0.000394729 -0.00125657 -0.00309839 0.00080733 0.00527688 -0.000660621
internal_weight=187478 64028 1785 123450 60307 1661 915 63143 1423 325 62243 614 61720 1098 21830 38477 301 26512 878 36645 23930 12715 8353 35731 25075 17081 30124 17101 2612 746 612 7994 6634 33119 31566 4459 19878 25760 2175 4887 2124 18969 9890 4729 2663 7211 488 3466 4364 2066 909 1553
internal_count=187478 64028 1785 123450 60307 1661 915 63143 1423 325 62243 614 61720 1098 21830 38477 301 26512 878 36645 23930 12715 8353 35731 25075 17081 30124 17101 2612 746 612 7994 6634 33119 31566 4459 19878 25760 2175 4887 2124 18969 9890 4729 2663 7211 488 3466 4364 2066 909 1553
is_linear=0
shrinkage=0.03


Tree=14
num_leaves=49
num_cat=0
split_feature=189 184 73 189 158 99 185 36 189 87 185 24 167 184 34 185 20 51 103 189 185 176 2 179 189 185 44 52 167 14 103 167 189 167 14 24 189 140 39 185 66 73 170 44 44 39 119 135
split_gain=841.322 387.416 370.481 216.147 176.562 166.459 125.525 140.269 120.386 104.797 101.893 107.869 106.686 89.8344 101.953 150.416 85.4718 82.0288 79.9167 67.5017 77.5391 60.5407 59.7692 57.5366 69.0361 56.2142 45.9902 43.6097 42.8419 40.3336 39.7189 42.056 38.0643 35.9252 34.314 32.1329 31.5349 30.3905 27.2806 26.4493 26.0255 26.0003 22.7336 20.0543 19.8018 19.7484 15.8994 13.0964
threshold=0.2918208539485932 -0.31955148279666895 0.56623974442482006 -0.70584723353385914 0.73986622691154491 0.32006740570068365 -0.11494599655270575 0.53571428358554851 0.82705858349800121 -0.24502627551555631 -0.11533072218298911 0.072762742638587966 -0.27909097075462336 -0.31955148279666895 -0.18292682617902753 0.47484988160431391 0.86494359374046337 -0.44097222387790674 -0.027106400579214093 0.88165438175201427 0.47484988160431391 -0.35867843031883234 0.41666667163372045 0.99577835202217113 -1.2991084456443784 1.0000000180025095e-35 0.49999992549419409 0.035066889598965652 -0.35794043540954584 -0.30000013858079905 0.14198076725006106 0.64006853103637706 1.3271738886833193 -0.12542708963155744 -1.0000000180025095e-35 0.59631791710853588 -0.09258271753787993 -0.41833284497261042 0.76829260587692272 -0.11455003917217253 1.7904616594314577 -0.014419020619243382 0.41141797602176672 0.60769227147102367 -0.80769228935241688 -0.25609754025936121 -0.8734433352947234 -0.13595494627952573
decision_type=2 2 2 2 2 2 2 2 2 2 2 2 2 2 2 2 2 2 2 2 2 2 2 2 2 2 2 2 2 2 2 2 2 2 2 2 2 2 2 2 2 2 2 2 2 2 2 2
left_child=3 2 5 13 10 8 7 16 22 32 11 36 -13 14 30 -16 18 34 -3 27 -21 -10 -2 24 29 -26 -19 -7 39 -15 -1 -32 45 37 -12 38 -5 -11 -25 -6 -37 -41 -34 46 -35 -8 -30 -45
right_child=1 6 -4 4 28 19 9 -9 21 33 17 12 -14 23 15 -17 -18 26 -20 20 -22 -23 -24 35 25 -27 -28 -29 43 -31 31 -33 42 44 -36 40 -38 -39 -40 41 -42 -43 -44 47 -46 -47 -48 -49
leaf_value=0.0071715296005086153 0.0062060727717614438 0.013001424440397032 0.066188032351256823 -0.0078662520492078069 -0.01854439314014799 -0.01299920653126666 -0.00063026316516194591 0.036103305307624393 0.025278812195882655 0.007475163592092474 0.0025213837448549853 -0.043033526065917885 -0.009691677678487701 -0.003834895186792539 -0.043873472616610606 -0.0059370659054647059 0.029723913159308044 -0.00023767706014489541 -0.0081292647341909396 0.031928894273108903 0.004278304746635193 0.053789716588116175 0.028841280746534005 -0.0011979515287665464 -0.0046978206848855286 -0.0014160782405038827 -0.0028643205841668543 0.0047286895140644788 -0.0088016961461297519 -0.0090269820739058669 -0.024254716694535265 -0.0025499967318838059 0.0015167619425953418 0.0063208624965930575 0.00035913093556894679 -0.0038229972251309489 0.0065751741873484957 0.003836446674059921 0.0038064225426534901 -0.0072038649901744788 -0.017806426545954306 -0.0034965895442729505 0.0058679913842504938 -0.012765798615674451 0.0023295191963825508 0.0011821403458279474 -0.0015030793063472783 -0.0043021153818486998
leaf_weight=178 304 338 125 310 126 222 10767 191 142 2542 13340 140 225 2287 186 190 128 37418 306 134 283 132 160 5356 9605 9196 7144 283 275 3282 123 229 2599 1183 13084 480 241 11051 1199 2556 159 5109 1850 218 20413 10875 10124 670
leaf_count=178 304 338 125 310 126 222 10767 191 142 2542 13340 140 225 2287 186 190 128 37418 306 134 283 132 160 5356 9605 9196 7144 283 275 3282 123 229 2599 1183 13084 480 241 11051 1199 2556 159 5109 1850 218 20413 10875 10124 670
internal_value=1.47246e-05 0.00280524 0.0165814 -0.0014326 -0.000682657 0.0128084 0.0024099 0.0131515 0.0234171 0.00224089 -1.8839e-06 -0.00993812 -0.022563 -0.00353383 -0.0128431 -0.0247701 0.00743361 0.000126471 0.00296403 0.00430072 0.0132188 0.0391596 0.0140566 -0.00326622 -0.00396212 -0.00309281 -0.000658825 -0.00307485 -0.00324825 -0.00689584 -0.004351 -0.0101815 0.000800073 0.00330913 0.00145079 -0.000908632 -0.0015493 0.00451742 -0.000282141 -0.00495932 -0.00732483 -0.00473361 0.00332702 -0.00206683 0.00254844 0.000280473 -0.00169692 -0.00639193
internal_weight=187478 64028 1785 123450 90980 1660 62243 963 738 61280 71902 916 365 32470 906 376 772 70986 644 922 417 274 464 31564 24370 18801 44562 505 19078 5569 530 352 26091 35189 26424 7194 551 13593 6555 7791 639 7665 4449 11287 21596 21642 10399 888
internal_count=187478 64028 1785 123450 90980 1660 62243 963 738 61280 71902 916 365 32470 906 376 772 70986 644 922 417 274 464 31564 24370 18801 44562 505 19078 5569 530 352 26091 35189 26424 7194 551 13593 6555 7791 639 7665 4449 11287 21596 21642 10399 888
is_linear=0
shrinkage=0.03


Tree=15
num_leaves=55
num_cat=0
split_feature=189 184 185 189 87 131 189 52 176 158 184 34 167 185 24 179 189 185 189 167 81 186 185 83 24 102 185 189 158 185 73 79 151 44 184 135 14 34 44 180 179 189 185 34 152 167 51 167 17 67 179 157 105 16
split_gain=789.495 414.698 279.218 387.591 175.927 166.089 141.006 138.857 106.389 106.372 95.6513 117.016 159.302 89.5075 84.6881 78.0084 72.7993 73.677 66.6375 66.2493 65.2342 61.0509 60.3209 117.313 59.2605 53.5863 48.3164 46.706 46.2138 43.9714 43.0332 42.5048 38.7671 33.1569 33.895 31.8656 31.668 30.2492 25.1945 24.3881 24.2379 24.2319 23.5393 22.4293 21.6126 21.1788 20.7845 19.5072 19.194 17.8577 15.5969 11.4664 11.0134 10.4997
threshold=0.0078117252269294122 -0.3230541050434112 0.47484988160431391 0.83002871274948131 -0.30414789915084833 -0.28499519824981684 -0.72101721167564381 0.031670469790697105 -0.28397884964942927 0.6552538573741914 -0.31955148279666895 -0.20731706172227857 0.36431863903999334 -0.11533072218298911 0.080197036266326918 0.95830208063125621 0.68967705965042125 -0.11455003917217253 0.59844431281089794 -0.063373330980539308 0.62108486890792858 -0.74999999999999989 -0.11494599655270575 -0.13301517814397809 0.22285144776105884 0.3315576314926148 -0.10838440805673598 -1.2991084456443784 -0.55681818723678578 0.0023745875805616383 0.46488474309444433 -0.11845436692237853 -0.29219019412994379 -0.43846151232719416 -0.18418764322996137 -0.15805085003376004 -0.70000019669532765 0.35365855693817144 -0.46923074126243586 -0.036891292780637734 0.28367242217063909 1.3022459745407107 -0.034464696422219269 0.28048780560493475 -0.75117763876914967 -0.042279088869690888 -0.7836257517337798 0.41527827084064489 0.42981559038162237 -0.49717608094215388 0.1774929761886597 -0.081516738981008516 -0.96433785557746876 0.11521148681640626
decision_type=2 2 2 2 2 2 2 2 2 2 2 2 2 2 2 2 2 2 2 2 2 2 2 2 2 2 2 2 2 2 2 2 2 2 2 2 2 2 2 2 2 2 2 2 2 2 2 2 2 2 2 2 2 2
left_child=6 2 3 7 16 -5 10 8 -2 13 11 21 -13 14 35 27 33 37 20 -9 46 -1 23 -20 28 -4 -22 36 -15 -29 45 -26 -23 34 -3 -8 -12 -18 39 51 -24 -19 -41 53 -35 -17 -6 -32 -45 50 -40 -11 -51 -27
right_child=1 4 25 5 18 -7 9 19 -10 38 15 12 -14 24 -16 30 17 41 22 -21 26 32 40 -25 31 43 -28 29 -30 -31 47 -33 -34 44 -36 -37 -38 -39 49 42 -42 -43 -44 48 -46 -47 -48 -49 -50 52 -52 -53 -54 -55
leaf_value=0.013840107154101134 0.012739244717194688 0.0051938710754895713 0.018162095213114324 0.0360840884148785 0.0023682627424114438 0.081119342624641405 -0.016483450842476106 0.037717498774747241 -0.020393979347965021 0.0044118143183609045 -0.0020517561824545567 -0.048264443519656641 -0.009004219169281933 0.0021079626236647966 -0.027060316308340597 -0.011868969172630221 0.0064860386524116624 0.00038190196547640404 -0.0010613194294273854 0.011851128367768403 0.014690673505897041 -0.022459465342424146 0.0044493427011412234 0.031799527317436814 -0.0037325011533989329 0.013337704028715106 0.003761584619340284 -0.0048346329561413286 -0.00033112404592233258 -0.00185602190423877 0.013899268467999413 -0.00055305408982496559 -0.0025824082292098534 0.0045258721897503996 -0.00059216539095294826 0.001790916081481196 -0.00774824779130794 0.026935791724341376 -0.006948741660124093 -0.0068811253523680463 0.0025609397285115921 0.0032261567744530009 -0.0013506578336139868 -0.0066776450977068229 -0.0023417792403425818 -0.0013128079635978012 0.00055291358008218003 0.0030110522785462912 0.0041568015714269135 -0.0091546389062863737 -0.002400970164111841 -0.00066196499615907658 -0.0027691713456365263 0.0014976625321585623
leaf_weight=130 260 1164 200 192 8116 122 122 221 130 519 1106 162 218 9986 213 175 124 8595 194 151 385 139 13852 196 6336 152 6453 9213 23307 8650 172 9395 240 425 4182 284 4282 138 3096 1192 10965 3927 1653 357 13025 6115 18880 1036 249 258 871 1749 4024 121
leaf_count=130 260 1164 200 192 8116 122 122 221 130 519 1106 162 218 9986 213 175 124 8595 194 151 385 139 13852 196 6336 152 6453 9213 23307 8650 172 9395 240 425 4182 284 4282 138 3096 1192 10965 3927 1653 357 13025 6115 18880 1036 249 258 871 1749 4024 121
internal_value=7.91658e-06 0.0019745 0.014978 0.0257845 0.00166511 0.0537838 -0.00191988 0.0141913 0.00167092 -0.00109928 -0.00355395 -0.0132502 -0.0258242 -0.000459732 -0.011787 -0.0032732 -0.000142242 0.00160422 0.00263182 0.0272779 0.0017618 -0.00383065 0.00379949 0.0154925 -0.000316471 0.00418756 0.00437898 -0.00413125 0.000400504 -0.00339245 -0.00061222 -0.0018338 -0.00991233 -0.00133011 0.000668381 -0.0037274 -0.00657952 0.0173187 -0.00347514 -0.00182 0.00361512 0.00127407 -0.00366942 0.000990894 -0.00212445 -0.00160834 0.00109874 0.00457158 -0.00222635 -0.00450071 -0.00595108 0.000500531 -0.00315596 0.00811454
internal_weight=187419 92776 2155 1076 90621 314 94643 762 390 63005 31638 889 380 49643 619 30749 31580 12784 59041 372 33834 509 25207 390 49024 1079 6838 23251 33293 17863 7498 15731 379 18796 5346 406 5388 262 13362 5113 24817 12522 2845 879 13450 6290 26996 1208 606 8249 3967 2268 4282 273
internal_count=187419 92776 2155 1076 90621 314 94643 762 390 63005 31638 889 380 49643 619 30749 31580 12784 59041 372 33834 509 25207 390 49024 1079 6838 23251 33293 17863 7498 15731 379 18796 5346 406 5388 262 13362 5113 24817 12522 2845 879 13450 6290 26996 1208 606 8249 3967 2268 4282 273
is_linear=0
shrinkage=0.03


Tree=16
num_leaves=57
num_cat=0
split_feature=189 158 189 158 189 185 101 24 68 42 185 103 189 24 99 73 185 103 167 185 185 96 158 185 87 108 173 69 51 63 58 176 24 185 42 180 32 181 172 132 84 139 167 101 21 180 84 113 150 167 168 176 185 3 185 180
split_gain=742.891 175.838 132.678 100.087 98.2181 84.2482 107.465 92.3656 67.7119 65.9096 60.0108 101.063 58.0982 55.7587 55.5882 49.9423 51.8316 48.6362 60.8235 46.5026 46.0619 44.5542 43.4828 42.4207 38.3965 37.4939 44.9641 33.4948 32.3646 32.2477 30.4811 29.3673 29.3353 26.7476 30.1033 26.1082 24.2184 24.1671 23.9124 21.1096 33.4083 21.837 20.7868 27.2372 20.1382 19.9421 19.3278 18.1502 16.8705 31.705 16.7485 14.65 10.9773 8.23669 10.1439 8.16216
threshold=0.0078117252269294122 0.6428571641445161 -0.72101721167564381 0.6552538573741914 0.56700053811073314 -0.11533072218298911 -0.16011373698711392 -0.07858779281377791 1.559387803077698 -0.39062498509883875 -0.11494599655270575 -0.23098427057266233 0.62306419014930736 0.22285144776105884 0.29117874801158911 0.80158448219299328 0.022081998176872734 -0.60418862104415882 0.085337609052658095 -0.11494599655270575 0.96573755145072948 0.56611815094947826 -0.55681818723678578 -0.088766723871231065 0.022616365924477581 0.63344380259513866 -0.95296815037727345 0.45233006775379186 -0.8530997335910796 0.42015728354454046 -0.071971021592617021 -0.1818066984415054 -0.24585615843534467 1.0393139719963076 -0.79687494039535511 0.41904360055923467 -0.26190476119518274 0.32983693480491644 -0.95947694778442372 -0.39928197860717768 -0.99338576197624195 -0.79511740803718556 -0.3052361905574798 -0.46020306646823878 -0.1160677634179592 -0.10224139317870139 -0.26182983815670008 -0.42445029318332667 -0.068305179476737962 -1.0199200510978697 -2.2271206378936763 0.17582257091999057 -0.10892558097839354 -1.0000000180025095e-35 -0.014554149471223353 0.29068063199520117
decision_type=2 2 2 2 2 2 2 2 2 2 2 2 2 2 2 2 2 2 2 2 2 2 2 2 2 2 2 2 2 2 2 2 2 2 2 2 2 2 2 2 2 2 2 2 2 2 2 2 2 2 2 2 2 2 2 2
left_child=2 4 8 5 9 6 7 -4 17 27 11 -6 29 22 -13 24 -17 23 20 -14 -19 -15 -7 44 -12 28 -27 32 -11 48 -20 -25 -2 34 50 -8 45 -29 -36 40 -21 -41 43 -38 -1 47 -47 -5 49 -3 -10 -50 -44 55 -55 -31
right_child=1 12 3 36 10 13 35 -9 33 25 15 14 19 21 -16 16 -18 18 30 39 -22 -23 -24 31 -26 26 -28 37 -30 53 -32 -33 -34 -35 38 -37 42 -39 -40 41 -42 -43 52 -45 -46 46 -48 -49 51 -51 -52 -53 -54 54 -56 -57
leaf_value=-0.018872860776091831 0.0042184349357265198 -0.015330055766008634 -0.0086961979827174223 -0.006927292904777763 0.031923373516618302 0.0020447300630249826 0.0046087951435028864 -0.045331998253088507 0.0062359507809982657 0.0033829846094089338 0.0024008109042048045 -0.0093318834070018255 0.01927673685754281 -0.00092408091605110886 0.014956411112289061 0.0064052988607096661 0.030469925156794489 -0.007644703992136263 -0.004651190799042566 0.0003093075354945494 -0.0030293135252957241 -0.0047612495216584998 -0.00032119075155632521 -0.0016952837384678926 0.0044569669455937115 -0.017985523455025017 -0.00076258675611625066 0.0084768117878370412 0.00062440449904402719 0.0078919276165422825 -0.0017529738537916128 0.0071399428697553587 0.00088378242687178461 -0.014775470508718238 -0.0012186920321339226 -0.012048422223754011 -0.0036988294411710219 0.0033511799945072696 -0.0076808282424438122 -0.010287357283890934 0.0085645998698165946 0.00058572640127501133 -0.0094988894857594673 -0.0092562131949065138 -0.0019278315654552474 -0.0057230118396179586 -0.0011656801719075972 0.0010901051488662313 -0.002514521364831112 -0.00078924036472127561 0.00054807850822740896 -0.0057495262559483637 -0.0027897996560286185 -0.0027676236203279169 0.0029618877547592532 0.0010809122457992625
leaf_weight=126 4423 138 127 287 181 9986 242 121 653 5411 15205 151 128 12228 191 232 123 7000 6637 990 2698 3503 23307 645 17687 138 7375 1666 13078 328 6433 711 5126 122 4281 129 1678 1649 585 170 795 5969 231 1509 126 1653 1698 2160 3617 4646 1621 1935 4146 513 605 306
leaf_count=126 4423 138 127 287 181 9986 242 121 653 5411 15205 151 128 12228 191 232 123 7000 6637 990 2698 3503 23307 645 17687 138 7375 1666 13078 328 6433 711 5126 122 4281 129 1678 1649 585 170 795 5969 231 1509 126 1653 1698 2160 3617 4646 1621 1935 4146 513 605 306
internal_value=7.7017e-06 0.00191536 -0.00186233 -0.00106634 0.00260308 -0.000445967 -0.0114354 -0.0266812 -0.00344741 0.00157471 0.00378655 0.0138611 -0.000564926 -0.000306978 0.00423669 0.00362765 0.0148054 -0.00420491 -0.00456102 0.0014092 -0.00636114 -0.0017788 0.000388491 0.00083704 0.00350657 0.000705706 -0.00108129 0.00333104 0.00143187 -0.00187993 -0.00322494 0.00293919 0.00242864 -0.000904515 -0.000665468 -0.00119989 -0.00337095 0.00592892 -0.001997 0.00111818 0.00398877 0.000283005 -0.00448913 -0.00633225 -0.0104415 -0.00191166 -0.00341478 0.000147327 -0.00251786 -0.0012118 0.00218343 -0.00364283 -0.00314597 0.00188285 0.000332748 0.00461147
internal_weight=187419 92776 94643 63005 72636 49643 619 248 31638 38866 33770 523 20140 49024 342 33247 355 24376 22768 8052 9698 15731 33293 1608 32892 26002 7513 12864 18489 12088 13070 1356 9549 7262 7140 371 13362 3315 4866 7924 1785 6139 7564 3187 252 5798 3351 2447 10336 4784 2274 5552 4377 1752 1118 634
internal_count=187419 92776 94643 63005 72636 49643 619 248 31638 38866 33770 523 20140 49024 342 33247 355 24376 22768 8052 9698 15731 33293 1608 32892 26002 7513 12864 18489 12088 13070 1356 9549 7262 7140 371 13362 3315 4866 7924 1785 6139 7564 3187 252 5798 3351 2447 10336 4784 2274 5552 4377 1752 1118 634
is_linear=0
shrinkage=0.03


Tree=17
num_leaves=53
num_cat=0
split_feature=189 184 185 189 158 52 189 183 176 158 184 34 167 81 185 189 185 24 99 179 186 24 102 7 189 185 158 185 73 189 185 151 173 108 98 184 39 9 21 34 167 185 24 149 178 180 173 189 77 161 128 16
split_gain=699.016 389.709 262.64 363.281 153.613 130.416 124.836 117.555 100.158 94.1753 90.2859 109.883 149.094 81.1889 130.084 80.9331 79.3128 77.0314 72.3377 71.5063 57.6671 52.464 50.3853 46.6974 44.2913 41.563 40.9132 40.089 39.4749 39.4364 70.1834 36.3948 35.7341 30.5298 29.7442 28.9235 27.9142 23.0992 22.2089 20.9487 19.7573 19.4114 20.8338 18.8914 16.5871 16.1023 15.5791 15.4013 15.1791 14.8295 13.9837 9.8912
threshold=0.0078117252269294122 -0.3230541050434112 0.47484988160431391 0.83002871274948131 0.6552538573741914 0.031670469790697105 -0.72101721167564381 0.029278398491442207 -0.28397884964942927 0.6552538573741914 -0.31955148279666895 -0.20731706172227857 0.36431863903999334 0.50173655152320873 -0.11494599655270575 0.59844431281089794 -0.11533072218298911 0.080197036266326918 -0.31211087107658381 0.95830208063125621 -0.74999999999999989 0.22285144776105884 0.3315576314926148 -1.0000000180025095e-35 -1.2991084456443784 -0.053687252104282372 -0.55681818723678578 0.0023745875805616383 0.46080963313579565 0.48947948217391973 -0.11494599655270575 -0.29219019412994379 1.6028937697410586 -1.6943318843841551 0.67694470286369335 -0.31955148279666895 0.03658537287265063 -0.50000016391277302 0.2185991778969765 0.28048780560493475 -0.042279088869690888 0.0039681175258010635 -0.020501307211816307 0.54468294978141796 -0.88998010754585255 -0.10224139317870139 -0.68375372886657704 -0.23782837390899655 -1.7060319185256956 0.18492598831653598 -0.52521100640296925 0.11521148681640626
decision_type=2 2 2 2 2 2 2 2 2 2 2 2 2 2 2 2 2 2 2 2 2 2 2 2 2 2 2 2 2 2 2 2 2 2 2 2 2 2 2 2 2 2 2 2 2 2 2 2 2 2 2 2
left_child=6 2 3 5 13 8 10 -5 -2 16 11 20 -13 15 -15 34 17 23 -7 24 -1 26 -4 -8 33 -23 -18 -26 40 36 -31 -22 -16 -12 -3 -17 49 41 -30 51 -21 47 -43 -41 -32 48 -38 -11 -39 -6 -47 -24
right_child=1 4 22 7 29 18 9 -9 -10 37 19 12 -14 14 32 35 21 -19 -20 28 31 25 39 -25 27 -27 -28 -29 38 30 44 -33 -34 -35 -36 -37 46 45 -40 43 -42 42 -44 -45 -46 50 -48 -49 -50 -51 -52 -53
leaf_value=0.013537187078711755 0.012326220421484489 0.0010855488115436847 0.017549111451397637 0.075409793642403425 -0.0045888776125740001 0.045053169866502284 -0.018942518356374508 0.037290202812076761 -0.019821960201970381 -0.010796072938206405 0.0060583688723987762 -0.046658390358410365 -0.008677104810150724 0.026946395301073789 0.004391987267399952 0.01581646200394831 0.0019833943171424441 -0.025661748840395255 0.016934712077603192 -0.011401319573553998 -0.021704591390211136 -0.0045633537619093169 0.012852790259400053 0.0032289575178409908 -0.0045503926541279327 -0.00088750043581989932 -0.00031155544312948654 -0.0017063324826273483 0.0057104491008374619 0.020966915619690846 -0.0046770677150216686 -0.0024456465411839493 -0.0015246870737965184 -0.0066896391564849889 -0.001455835119130689 0.0028587323441077788 -0.004106933003757582 0.0085538902075088519 -0.0076312208416080092 -0.0093573396459958238 -0.0012049309772269986 -0.0069626348365686439 -0.00084826998900116224 0.0017051255580902949 0.00053828837303373524 -0.0079356862524927584 0.00052583210240799132 -0.0048984119722145485 -0.0013997614105433263 -0.0010758099041023525 -0.0030253020940624181 0.0013618930488000394
leaf_weight=130 260 26657 200 120 3888 124 121 194 130 780 174 162 218 224 11909 155 9986 213 248 175 139 3585 152 285 9213 12146 23307 8650 1114 148 584 240 995 5214 4907 26542 806 142 124 214 6085 854 1214 392 8878 581 3429 820 3864 1499 5107 121
leaf_count=130 260 26657 200 120 3888 124 121 194 130 780 174 162 218 224 11909 155 9986 213 248 175 139 3585 152 285 9213 12146 23307 8650 1114 148 584 240 995 5214 4907 26542 806 142 124 214 6085 854 1214 392 8878 581 3429 820 3864 1499 5107 121
internal_value=7.46008e-06 0.00185793 0.0144635 0.0249443 0.00155801 0.0137207 -0.00180651 0.0520513 0.00158687 -0.00103439 -0.00334404 -0.0127644 -0.0249491 0.00219909 0.00433033 0.00171879 -0.000432627 -0.0110954 0.0264032 -0.00307127 -0.00363661 -0.000297771 0.00399841 -0.0034091 -0.00389279 -0.00172544 0.000376837 -0.00317335 -0.000523616 -0.000821666 0.00053766 -0.00954748 0.00393568 -0.00627691 0.000690427 0.00293455 -0.00217921 -0.0032699 0.00436905 0.000898766 -0.00149175 -0.00529764 -0.0033754 -0.0022104 0.000215933 -0.00250219 -0.000356631 -0.00777847 -0.00104489 -0.0036117 -0.00352818 0.00778331
internal_weight=187419 92776 2155 1076 90621 762 94643 314 390 63005 31638 889 380 71389 13128 58261 49643 619 372 30749 509 49024 1079 406 23251 15731 33293 17863 7498 19232 9610 379 12904 5388 31564 26697 9622 13362 1238 879 6260 3668 2068 606 9462 9694 4235 1600 4006 5387 5688 273
internal_count=187419 92776 2155 1076 90621 762 94643 314 390 63005 31638 889 380 71389 13128 58261 49643 619 372 30749 509 49024 1079 406 23251 15731 33293 17863 7498 19232 9610 379 12904 5388 31564 26697 9622 13362 1238 879 6260 3668 2068 606 9462 9694 4235 1600 4006 5387 5688 273
is_linear=0
shrinkage=0.03


Tree=18
num_leaves=51
num_cat=0
split_feature=189 184 189 185 87 99 82 90 189 186 189 189 184 71 185 189 189 185 101 185 185 158 185 16 44 42 113 21 44 173 185 93 188 4 150 113 173 3 167 100 164 168 185 4 7 180 189 145 22 9
split_gain=657.752 367.735 258.993 332.15 156.28 138.957 119.127 106.782 81.4914 79.5301 78.5654 58.2848 58.7635 57.8476 66.0437 60.6087 57.4531 65.1772 50.4343 49.8112 48.384 44.1037 43.5709 49.9484 42.0764 42.076 38.8551 38.5456 36.4447 35.3063 36.6074 35.0559 32.6069 31.2496 32.3672 29.3991 28.1559 26.1432 25.2301 31.5288 25.0876 24.4659 24.2505 23.2367 20.336 20.1526 19.5062 17.0704 12.0397 8.45747
